/* 
Copyright (c) 2018. All rights reserved.
 
Permission is hereby granted, free of charge, to any person obtaining a copy
of this software and associated documentation files (the "Software"), to deal
in the Software without restriction, including without limitation the rights
to use, copy, modify, merge, publish, distribute, sublicense, and/or sell
copies of the Software, and to permit persons to whom the Software is
furnished to do so, subject to the following conditions:
 
The above copyright notice and this permission notice shall be included in
all copies or substantial portions of the Software.
 
THE SOFTWARE IS PROVIDED "AS IS", WITHOUT WARRANTY OF ANY KIND, EXPRESS OR
IMPLIED, INCLUDING BUT NOT LIMITED TO THE WARRANTIES OF MERCHANTABILITY,
FITNESS FOR A PARTICULAR PURPOSE AND NONINFRINGEMENT.  IN NO EVENT SHALL THE
AUTHORS OR COPYRIGHT HOLDERS BE LIABLE FOR ANY CLAIM, DAMAGES OR OTHER
LIABILITY, WHETHER IN AN ACTION OF CONTRACT, TORT OR OTHERWISE, ARISING FROM,
OUT OF OR IN CONNECTION WITH THE SOFTWARE OR THE USE OR OTHER DEALINGS IN
THE SOFTWARE.
*/

#include "region.h"

const int          Region::numBoxesPerGrid = 5;
const float        Region::biases[Region::numBoxesPerGrid*2] = 
                        {
                            1.08,  1.19,  
                            3.42,  4.41,  
                            6.63,  11.38,  
                            9.42,  5.11,  
                            16.62, 10.52
                        };
const std::string Region::objectnames[] = 
                        { 
                            "aeroplane",
                            "bicycle",
                            "bird",
                            "boat",
                            "bottle",
                            "bus",
                            "car",
                            "cat",
                            "chair",
                            "cow",
                            "diningtable",
                            "dog",
                            "horse",
                            "motorbike",
                            "person",
                            "pottedplant",
                            "sheep",
                            "sofa",
                            "train",
                            "tvmonitor"
                        };

int Region::indexsort_comparator(const void *pa, const void *pb)
{
    float proba = ((indexsort *)pa)->prob[((indexsort *)pa)->index * ((indexsort *)pa)->channel + ((indexsort *)pa)->iclass];
    float probb = ((indexsort *)pb)->prob[((indexsort *)pb)->index * ((indexsort *)pb)->channel + ((indexsort *)pb)->iclass];

    float diff = proba - probb;
    if(diff < 0) return 1;
    else if(diff > 0) return -1;
    return 0;
}

float Region::logistic_activate(float x)
{
    return 1./(1. + exp(-x));
}

void Region::transpose(float *src, float* tar, int k, int n)
{
    int i, j, p;
    float *tmp = tar;
    for(i = 0; i < n; ++i)
    {
        for(j = 0, p = i; j < k; ++j, p += n)
        {
            *(tmp++) = src[p];
        }
    }
}

void Region::softmax(float *input, int n, float temp, float *output)
{
    int i;
    float sum = 0;
    float largest = input[0];
    for(i = 0; i < n; ++i){
        if(input[i] > largest) largest = input[i];
    }
    for(i = 0; i < n; ++i){
        float e = exp(input[i]/temp - largest/temp);
        sum += e;
        output[i] = e;
    }
    for(i = 0; i < n; ++i){
        output[i] /= sum;
    }
}

float Region::overlap(float x1, float w1, float x2, float w2)
{
    float l1 = x1 - w1/2;
    float l2 = x2 - w2/2;
    float left = l1 > l2 ? l1 : l2;
    float r1 = x1 + w1/2;
    float r2 = x2 + w2/2;
    float right = r1 < r2 ? r1 : r2;
    return right - left;
}

float Region::box_intersection(ibox a, ibox b)
{
    float w = overlap(a.x, a.w, b.x, b.w);
    float h = overlap(a.y, a.h, b.y, b.h);
    if(w < 0 || h < 0) return 0;
    float area = w*h;
    return area;
}

float Region::box_union(ibox a, ibox b)
{
    float i = box_intersection(a, b);
    float u = a.w*a.h + b.w*b.h - i;
    return u;
}

float Region::box_iou(ibox a, ibox b)
{
    return box_intersection(a, b)/box_union(a, b);
}

int Region::max_index(float *a, int n)
{
    if(n <= 0) return -1;
    int i, max_i = 0;
    float max = a[0];
    for(i = 1; i < n; ++i){
        if(a[i] > max){
            max = a[i];
            max_i = i;
        }
    }
    return max_i;
}

Region::Region(int c, int h, int w, int classes)
{
	size = 4 + classes + 1;
	totalLength = c * h * w;
	totalObjects = numBoxesPerGrid * h * w;
	output.resize(totalLength);
	boxes.resize(totalObjects);
	s.resize(totalObjects);

	for(int i = 0; i < totalObjects; ++i)
	{
		s[i].index = i;
		s[i].channel = size;
		s[i].prob = &output[5];
	}
}


PyObject*
Region::GetDetections(float* data, int c, int h, int w, 
                      int classes, int imgw, int imgh,
                      float thresh, float nms,
                      int blockwd)
{

	PyObject* objects = NULL ; 

	int i,j,k;

	transpose(data, &output[0], size*numBoxesPerGrid, w*h);

	// Initialize box, scale and probability
	for(i = 0; i < h*w*numBoxesPerGrid; ++i)
	{
		int index = i * size;
		//Box
		int n = i % numBoxesPerGrid;
		int row = (i/numBoxesPerGrid) / w;
		int col = (i/numBoxesPerGrid) % w;

		boxes[i].x = (col + logistic_activate(output[index + 0])) / blockwd; //w;
		boxes[i].y = (row + logistic_activate(output[index + 1])) / blockwd; //h;
		boxes[i].w = exp(output[index + 2]) * biases[2*n]   / blockwd; //w;
		boxes[i].h = exp(output[index + 3]) * biases[2*n+1] / blockwd; //h;

		//Scale
		output[index + 4] = logistic_activate(output[index + 4]);

		//Class Probability
		softmax(&output[index + 5], classes, 1, &output[index + 5]);
		for(j = 0; j < classes; ++j)
		{
			output[index+5+j] *= output[index+4];
			if(output[index+5+j] < thresh) output[index+5+j] = 0;
		}
	}

	//nms
	for(k = 0; k < classes; ++k)
	{
		for(i = 0; i < totalObjects; ++i)
		{
			s[i].iclass = k;
		}
		qsort(&s[0], totalObjects, sizeof(indexsort), this->indexsort_comparator);
		for(i = 0; i < totalObjects; ++i){
			if(output[s[i].index * size + k + 5] == 0) continue;
			ibox a = boxes[s[i].index];
			for(j = i+1; j < totalObjects; ++j){
				ibox b = boxes[s[j].index];
				if (box_iou(a, b) > nms){
					output[s[j].index * size + 5 + k] = 0;
				}
			}
		}
	}

	// generate objects
	for(i = 0, j = 5; i < totalObjects; ++i, j += size)
	{
		int iclass = max_index(&output[j], classes);

		double prob = output[j+iclass];

		if(prob > thresh)
		{
			ibox b = boxes[i];

			//printf("%f %f %f %f\n", b.x, b.y, b.w, b.h);

			int left  = (b.x-b.w/2.)*imgw;
			int right = (b.x+b.w/2.)*imgw;
			int top   = (b.y-b.h/2.)*imgh;
			int bot   = (b.y+b.h/2.)*imgh;

			if(left < 0) left = 0;
			if(right > imgw-1) right = imgw-1;
			if(top < 0) top = 0;
			if(bot > imgh-1) bot = imgh-1;


            PyObject* objectBox = PyList_New(0);
            if ( objectBox ) {
                PyList_Append(objectBox, PyInt_FromLong(left));
                PyList_Append(objectBox, PyInt_FromLong(top));
                PyList_Append(objectBox, PyInt_FromLong(right));
                PyList_Append(objectBox, PyInt_FromLong(bot));
                PyList_Append(objectBox, PyFloat_FromDouble(prob));
                PyList_Append(objectBox, PyInt_FromLong(iclass));
                PyList_Append(objectBox, PyString_FromString(objectnames[iclass].c_str()));

                if ( !objects )
                {
                    objects = PyList_New(0);
                    Py_INCREF(objects);
                }
                Py_INCREF(objectBox);
                PyList_Append(objects, objectBox);
            } else {
                printf("Could not allocate memory for the object box.\n");
            }

		}
	}

    if ( ! objects )
        Py_RETURN_NONE ;

	return objects ;
}


#ifdef _REGION_MAIN
#include <iostream>
//g++ -g -D_REGION_MAIN -I./models/openVXModel -L/usr/lib region.cpp -lpython2.7

void initPython()
{
    Py_Initialize();
    PyObject *sysmodule = PyImport_ImportModule("sys");
    PyObject *syspath = PyObject_GetAttrString(sysmodule, "path");
    PyList_Append(syspath, PyString_FromString("."));
    Py_DECREF(syspath);
    Py_DECREF(sysmodule);
}

int main(int argc, char** argv)
{
    initPython();

    float inference_data[] = { \
2.53888160e-01,  2.23964322e-02, -1.45487890e-01, -1.07439002e-02, 5.91072366e-02,  1.36629790e-01,  1.32669359e-01,  1.24083139e-01, 1.29389778e-01,  5.11363707e-02,  5.65120056e-02,  1.28533021e-01, -3.88500184e-01,  4.82933760e-01, -2.24916905e-01,  7.13067576e-02, 1.84684992e-01, -7.37551227e-02, -2.27363408e-02, -7.20579252e-02, -3.84507421e-03, -2.58367639e-02,  2.02679485e-01,  4.47298169e-01, 1.40838847e-01,  8.80900323e-01, -6.09411657e-01, -2.27195442e-01, 1.71064064e-01, -3.65968257e-01, -3.86703163e-01, -2.50799984e-01, -1.24011606e-01, -7.40215331e-02,  2.43436992e-02,  5.37865698e-01, 7.50592649e-01,  1.44670236e+00, -9.90120053e-01, -4.91642952e-01, 2.37555444e-01, -5.42381406e-01, -4.01103735e-01, -4.63378429e-03, -7.28223249e-02, -2.39834294e-01, -2.89349765e-01,  3.56925726e-01, 4.78744984e-01,  7.47008204e-01, -1.51089203e+00, -4.62550044e-01, 5.24133325e-01,  4.24158007e-01,  4.51674581e-01,  2.82985270e-01, 1.32581517e-01, -5.64519987e-02, -8.09135437e-02,  4.41305876e-01, -2.81920675e-02, -3.67601693e-01, -9.99608636e-01,  3.33194137e-01, 4.71621245e-01,  9.24221218e-01,  7.11074889e-01,  2.52683491e-01, 2.41217554e-01, -5.64631075e-02, -1.13067731e-01,  4.04897124e-01, -1.83612183e-01, -7.83278584e-01, -1.03094019e-01,  5.36055207e-01, -2.43375152e-01,  1.12009913e-01, -2.07755953e-01, -2.29824428e-02, 1.76985726e-01, -5.15730269e-02, -8.74243900e-02,  1.78943798e-01, -2.51297265e-01, -2.52766032e-02,  2.36526966e-01,  3.22968185e-01, -5.81987917e-01,  1.11804083e-01, -5.14732301e-01, -6.49828374e-01, -1.09808162e-01,  1.12386346e-02, -2.74044842e-01, -1.18191354e-01, -6.29471958e-01,  4.36302334e-01,  3.88956189e-01,  1.42016158e-01, 1.30587267e-02,  6.07409298e-01, -1.15549900e-01, -3.20812881e-01, 1.45964995e-01,  1.04434453e-01, -3.65429640e-01, -5.19094527e-01, -5.91902792e-01,  2.46413678e-01, -2.41622314e-01, -4.61034507e-01, -1.46658361e-01,  5.81711084e-02, -1.18776895e-01, -2.23632842e-01, 7.73087502e-01,  1.17477155e+00,  5.02298117e-01, -3.00354123e-01, -4.21420455e-01,  6.37067631e-02, -2.19044648e-03, -2.12943017e-01, -1.56822890e-01, -2.51782089e-01, -2.29236111e-01, -3.09334576e-01, 1.17514394e-01,  3.42995644e-01,  7.35318303e-01,  3.75904024e-01, -2.11656898e-01, -2.29877373e-03,  2.93341074e-02, -3.28660570e-02, -3.33413519e-02, -1.55749112e-01, -1.16217680e-01, -8.99754018e-02, -3.16120125e-02, -1.52761430e-01,  1.28116861e-01,  1.06261000e-01, -5.78763127e-01, -6.60184979e-01, -4.88767028e-01, -6.31385684e-01, -7.51827419e-01, -7.77037144e-01, -8.18632066e-01, -8.24570537e-01, -8.64253342e-01, -8.05863261e-01, -8.46146286e-01, -5.29394805e-01, -8.11116248e-02,  3.69732618e-01,  3.67836446e-01, -1.67427376e-01, -4.64434296e-01, -3.61665219e-01, -3.96324813e-01, -4.45676744e-01, -5.89804828e-01, -5.33903480e-01, -4.86313671e-01, -2.10960224e-01, 4.45356041e-01,  1.62798858e+00,  9.85820651e-01,  6.15251064e-02, -2.43132412e-01, -2.22913474e-01, -2.70748615e-01, -1.06862001e-01, -4.25786823e-02, -1.24579035e-02, -2.01413874e-02, -1.49001136e-01, 8.13931882e-01,  1.33600163e+00,  1.08782959e+00,  7.32498109e-01, 4.31023419e-01,  3.16435754e-01,  6.10935271e-01,  5.59503555e-01, 3.92249376e-01,  2.48871908e-01,  2.41376851e-02, -7.71016553e-02, 4.31929350e-01, -5.45092642e-01, -4.47828859e-01, -4.26287949e-02, -9.38744657e-03,  7.54672825e-01,  1.83628500e+00,  1.52313089e+00, 1.13477206e+00,  7.46395588e-01,  3.52612406e-01,  1.26222475e-02, 1.04230356e+00, -7.49980435e-02, -1.93891581e-02,  1.03118038e+00, 1.19712591e+00,  1.11657548e+00,  8.75814080e-01,  4.01899070e-01, 3.55696291e-01,  4.71366376e-01,  6.02803946e-01,  4.44344401e-01, 5.66621363e-01,  9.86316025e-01,  2.18834114e+00,  2.77472711e+00, 2.48809004e+00,  1.87001944e+00,  1.43161345e+00,  1.17327380e+00, 1.22311544e+00,  1.13093221e+00,  1.32566643e+00,  8.23831618e-01, -1.33067882e+00, -9.77044225e-01,  1.47609860e-01,  1.90525860e-01, 1.84171602e-01,  1.00343955e+00,  1.64467967e+00,  1.88502669e+00, 2.00258112e+00,  2.20890260e+00,  2.15984559e+00,  1.07438016e+00, -1.36406994e+00, -1.52609527e+00, -1.90152061e+00, -2.89403081e+00, -3.02160525e+00, -2.65137100e+00, -2.50192428e+00, -1.91320693e+00, -1.39369965e+00, -2.88646966e-01,  5.73597491e-01,  5.98598957e-01, -2.44730532e-01, -4.08584118e-01, -7.36485004e-01, -1.14437211e+00, -1.27199221e+00, -1.89066052e+00, -2.67256069e+00, -2.36652255e+00, -2.46027446e+00, -2.66642737e+00, -2.00677943e+00, -4.25825953e-01, 8.34624171e-02,  1.02340274e-01, -1.22176223e-01, -8.39634566e-04, 1.05176605e-01,  6.79175332e-02, -1.07560597e-01, -3.24615479e-01, -8.28282595e-01, -1.37911081e+00, -1.38487244e+00, -1.69935787e+00, -1.71405688e-01,  2.94201046e-01,  2.79782057e-01,  2.92284936e-01, 3.93078327e-01,  3.29219043e-01,  2.95169771e-01,  3.57893258e-01, 4.68747050e-01,  4.70558643e-01,  3.19647133e-01, -6.20212257e-01, -2.89514095e-01,  1.42143760e-02,  2.54784822e-01,  4.22667384e-01, 3.97587806e-01,  3.41572464e-01,  2.98951268e-01,  2.97599822e-01, 2.99546778e-01,  2.68890709e-01,  3.13314497e-01, -2.95916438e-01, -8.66849244e-01, -5.66582739e-01, -3.46198946e-01, -6.31192401e-02, 1.52266219e-01,  1.74740270e-01,  1.13051973e-01,  1.15891241e-01, 1.36823609e-01,  9.54201296e-02,  2.44986609e-01, -6.16395831e-01, -1.11036694e+00, -8.17232668e-01, -6.10130548e-01, -3.66316080e-01, -5.17238379e-02, -1.95096672e-01, -2.94643193e-01, -1.39739186e-01, -4.74491492e-02, -1.52097106e-01, -4.85407934e-02, -9.53664362e-01, -1.09525299e+00, -8.72302353e-01, -8.09233725e-01, -5.03191769e-01, -4.05678511e-01, -7.22185314e-01, -1.02056336e+00, -7.81491518e-01, -4.82700944e-01, -6.30525291e-01, -3.21343660e-01, -1.13645172e+00, -6.56046391e-01, -7.26688683e-01, -7.87552834e-01, -3.58093888e-01, -2.68294662e-01, -7.49992311e-01, -1.04204261e+00, -5.82896292e-01, -2.89895147e-01, -5.10304153e-01, -2.97850668e-01, -1.13706553e+00, -2.70444095e-01, -3.17429274e-01, -4.37239736e-01, -3.68003696e-01, -3.20879102e-01, -6.19776607e-01, -6.29021227e-01, -3.65702878e-03, 2.00887620e-02, -3.84368628e-01, -2.60065556e-01, -8.24802279e-01, -4.75574166e-01, -4.29677367e-01, -3.15250874e-01, -2.26356953e-01, -4.56362456e-01, -5.42148709e-01, -5.32382369e-01, -1.96009129e-01, -2.82042354e-01, -5.53091764e-01, -5.25794864e-01, -4.26303774e-01, -6.99192822e-01, -1.45773157e-01, -1.99041665e-01, -2.98344880e-01, -5.71184516e-01, -2.50127047e-01, -2.76793450e-01, -5.48311174e-01, -6.12709939e-01, -5.86394072e-01, -5.76516449e-01, -5.52734315e-01, -8.23937356e-01,  3.04724425e-01, -2.36472767e-02, -3.20046633e-01, -5.70259929e-01, -3.09636801e-01, -4.65715080e-01, -8.28063548e-01, -1.05624890e+00, -9.40041184e-01, -6.09886765e-01, -3.69586259e-01, -8.62179697e-01,  6.64033145e-02,  1.04638282e-02, -1.88863307e-01, -2.64688492e-01, -4.73436207e-01, -6.09227061e-01, -7.32158780e-01, -9.72708166e-01, -1.12955034e+00, -6.47716701e-01, -9.92523283e-02, -7.75357962e-01,  5.43488469e-03, -1.09774686e-01, -8.80969018e-02, -3.87571752e-02, -1.74307093e-01, -3.07369173e-01, -3.85214120e-01, -4.06523526e-01, -6.42386913e-01, -5.82217097e-01, -5.48236966e-01, -4.22698557e-01,  4.97196257e-01,  5.97764492e-01,  6.39928579e-01, 5.70163429e-01,  4.16729957e-01,  2.81104773e-01,  2.10530579e-01, 1.69400737e-01,  1.06513269e-01,  2.07827345e-01, -4.55430359e-01, -2.10308999e-01, -5.89716852e-01, -8.03164780e-01, -8.60650659e-01, -7.62677014e-01, -7.37268806e-01, -7.76677907e-01, -7.85179257e-01, -8.21638525e-01, -8.02988589e-01, -7.24418044e-01, -2.60256916e-01, 1.42308295e-01, -2.18796402e-01, -2.53454417e-01, -3.36883307e-01, -3.27503145e-01, -2.57867455e-01, -3.30239892e-01, -3.48975271e-01, -3.66664737e-01, -3.84956747e-01, -3.33600372e-01,  2.04207957e-01, 1.87125355e-01, -4.87244800e-02,  2.62010396e-02, -3.13354284e-01, -3.22520643e-01, -3.58558595e-01, -4.50102001e-01, -3.40672731e-01, -2.35770077e-01, -2.91265994e-01, -3.60020906e-01,  4.00635988e-01, 2.42189288e-01,  3.36764544e-01,  2.94324994e-01, -1.45217657e-01, -1.64775580e-01, -3.07638586e-01, -5.03809631e-01, -3.67405236e-01, -2.70057380e-01, -3.46139461e-01, -4.18113977e-01,  4.00717437e-01, 6.43612683e-01,  6.78561985e-01,  3.89674306e-01, -2.26524204e-01, -2.54616559e-01, -3.07535231e-01, -4.67648774e-01, -5.04522443e-01, -3.80830377e-01, -8.35862085e-02, -8.91186669e-02,  5.84863007e-01, 6.49925768e-01,  7.07588077e-01,  2.05184132e-01, -2.47747868e-01, -2.76853830e-01, -1.52045339e-01, -9.19058099e-02, -3.41809303e-01, -4.14880663e-01, -8.68670642e-03,  3.69195268e-02,  5.50157964e-01, -5.69524243e-02, -1.72236502e-01, -5.04318476e-01, -2.65242904e-01, -4.39740866e-01, -4.39872354e-01, -3.47187191e-01, -4.15258974e-01, -3.29431027e-01,  1.36241928e-01,  2.58598849e-02,  1.64213195e-01, -4.27256614e-01, -1.06731224e+00, -7.87775338e-01, -5.43459773e-01, -6.04856312e-01, -4.53020006e-01, -4.86143738e-01, -5.16603351e-01, -3.19291115e-01, -1.40020788e-01, -8.86210129e-02,  2.60308832e-02, 2.95122057e-01, -7.42564023e-01, -7.24075496e-01, -7.59049356e-01, -7.67020464e-01, -5.99484205e-01, -5.95632315e-01, -6.87287390e-01, -8.64340901e-01, -6.90908611e-01, -2.35299796e-01,  1.24229610e-01, 7.86177814e-01, -5.32555059e-02, -1.75365001e-01, -3.28767538e-01, -3.13473880e-01, -4.25264150e-01, -4.18118328e-01, -4.31712061e-01, -5.78683078e-01, -5.84850729e-01, -2.80970007e-01,  4.24109429e-01, 6.96370065e-01,  1.94394171e-01,  1.26046240e-01,  1.61379755e-01, 1.22762583e-01,  1.49248049e-01,  1.47362769e-01,  1.93902582e-01, 2.25627050e-01, -2.55585343e-01, -2.78015614e-01,  3.51489753e-01, 2.37610430e-01, -3.38164568e-01, -4.58550245e-01, -4.43503410e-01, -5.52732289e-01, -6.39036179e-01, -6.42786324e-01, -4.92855698e-01, -3.85917634e-01, -4.55409855e-01, -4.49329883e-01, -3.12684089e-01, -6.99924326e+00, -7.05590057e+00, -6.90715933e+00, -7.03750896e+00, -6.86820030e+00, -6.67613506e+00, -6.65581131e+00, -6.72263575e+00, -6.70922899e+00, -6.62077093e+00, -6.77414227e+00, -6.52288389e+00, -8.29004574e+00, -8.12554264e+00, -7.02838373e+00, -7.26521635e+00, -7.40691853e+00, -7.80568409e+00, -7.90657043e+00, -7.87512398e+00, -7.92639065e+00, -7.85454369e+00, -8.01136971e+00, -7.50053072e+00, -8.59446144e+00, -6.41985512e+00, -6.20033407e+00, -8.02797127e+00, -7.37712860e+00, -7.63896847e+00, -7.65966463e+00, -7.27743673e+00, -7.14762020e+00, -7.15486860e+00, -7.70237637e+00, -7.61258745e+00, -7.70137453e+00, -4.34426212e+00, -6.20589066e+00, -9.30981731e+00, -8.10311127e+00, -8.95379448e+00, -9.84759808e+00, -9.00310707e+00, -8.10891056e+00, -7.41677141e+00, -8.33791065e+00, -7.25306034e+00, -6.50421762e+00, -3.84090447e+00, -6.67747879e+00, -9.67552567e+00, -9.43009472e+00, -9.53454781e+00, -8.16242027e+00, -8.29085827e+00, -8.16285229e+00, -7.90365267e+00, -9.33639050e+00, -8.18616104e+00, -5.39564419e+00, -6.64453888e+00, -1.04009237e+01, -1.03029718e+01, -9.69956493e+00, -7.59431076e+00, -5.10073423e+00, -6.19234276e+00, -7.74280834e+00, -8.19209385e+00, -1.03643494e+01, -8.80371666e+00, -3.86815667e+00, -5.91700697e+00, -7.83362055e+00, -4.79216290e+00, -5.62958574e+00, -5.46468163e+00, -5.49041891e+00, -7.29498100e+00, -8.05156803e+00, -7.71721506e+00, -8.28262329e+00, -6.67335176e+00, -4.34986353e+00, -4.64239883e+00, -3.41218257e+00, -1.47062731e+00, -2.63445854e+00, -1.54825628e+00, -1.11723232e+00, -3.60079288e+00, -4.19322252e+00, -3.66769624e+00, -3.18610978e+00, -3.80925608e+00, -6.88309765e+00, -7.20258951e+00, -5.42171478e+00, -4.76527691e+00, -5.60972261e+00, -3.52811694e+00, -1.94425654e+00, -2.76467037e+00, -2.85074973e+00, -1.96769643e+00, -1.24793208e+00, -2.39511681e+00, -6.65311241e+00, -7.84442091e+00, -7.54244232e+00, -8.64746284e+00, -8.86799812e+00, -8.70692444e+00, -8.38103104e+00, -7.31272650e+00, -6.96586752e+00, -4.94603443e+00, -2.97649574e+00, -1.52416372e+00, -5.11325598e+00, -6.34373903e+00, -7.10028505e+00, -7.41454029e+00, -7.70178270e+00, -9.12338829e+00, -1.02604799e+01, -9.66193581e+00, -9.11490345e+00, -9.28360462e+00, -8.22681332e+00, -4.42575502e+00, -6.19026613e+00, -6.97466326e+00, -7.32819557e+00, -7.66776943e+00, -7.88075352e+00, -8.32966518e+00, -8.79827213e+00, -8.64556408e+00, -8.40622330e+00, -9.15022469e+00, -9.59274387e+00, -8.87008667e+00, 7.23967850e-01,  1.55015743e+00,  1.40926087e+00,  1.43637049e+00, 1.09262133e+00,  6.07676625e-01,  6.83731556e-01,  7.56375492e-01, 6.49968684e-01,  6.17277622e-01,  6.84227526e-01, -8.12616348e-02, 2.90122449e-01,  1.43295193e+00,  1.53880584e+00,  1.50667036e+00, 9.11806881e-01, -3.86825837e-02,  6.82012886e-02,  2.01699510e-01, 4.66672145e-02, -1.10885598e-01, -1.80993974e-01, -6.96471632e-01, 1.24262202e+00,  2.87345481e+00,  2.89876056e+00,  2.99909830e+00, 2.22675586e+00,  6.91550970e-01,  7.62607753e-01,  1.10387194e+00, 1.23390663e+00,  7.53849983e-01,  4.56547976e-01, -6.33513927e-01, 1.85022402e+00,  2.53309727e+00,  3.12370300e+00,  3.00011539e+00, 2.03863931e+00,  8.86136651e-01,  1.39142108e+00,  2.19827604e+00, 2.55211616e+00,  1.69512868e+00,  7.09714830e-01, -6.92161739e-01, 2.29359198e+00,  1.55077362e+00,  3.69322252e+00,  4.43341637e+00, 3.83311129e+00,  3.83035517e+00,  5.59045935e+00,  6.54138565e+00, 6.08299780e+00,  4.05883312e+00,  2.02988124e+00,  5.21929599e-02, 2.37663198e+00,  1.54157710e+00,  2.45669031e+00,  3.32628441e+00, 3.77336931e+00,  5.44805098e+00,  8.08217144e+00,  9.27904034e+00, 8.55553341e+00,  5.86804199e+00,  3.51447725e+00,  1.54591870e+00, 1.67942357e+00,  9.40369070e-01,  1.31071579e+00,  1.30800045e+00, 2.78640366e+00,  5.37426996e+00,  7.39357328e+00,  7.50765181e+00, 7.31106424e+00,  5.90664244e+00,  4.66135311e+00,  3.20301795e+00, 6.56159401e-01,  2.02031747e-01, -8.72470438e-01, -7.31904447e-01, 7.44985700e-01,  3.29351521e+00,  5.31038332e+00,  4.90643215e+00, 4.29873276e+00,  4.68803883e+00,  5.02114296e+00,  3.07116675e+00, -1.55156720e+00, -1.72570693e+00, -2.01849866e+00, -1.63777697e+00, -9.72217500e-01,  9.78877366e-01,  2.19546080e+00,  1.75917590e+00, 1.64474034e+00,  2.17911506e+00,  2.90437102e+00,  1.47001803e+00, -2.22818255e+00, -2.88373637e+00, -2.98088646e+00, -2.30681491e+00, -1.93712699e+00, -1.37889493e+00, -1.13947082e+00, -1.21707344e+00, -1.27305138e+00, -8.21760714e-01, -5.74706376e-01, -6.94277406e-01, -1.44601560e+00, -2.24008942e+00, -2.64273453e+00, -2.56228685e+00, -2.65386486e+00, -2.72367620e+00, -3.12074041e+00, -3.02357912e+00, -2.81491947e+00, -2.46026635e+00, -2.07527995e+00, -1.15905964e+00, -5.15525341e-01, -8.41878951e-01, -9.68899846e-01, -1.41881359e+00, -1.47733235e+00, -1.48403978e+00, -1.66711199e+00, -2.03765869e+00, -2.23732233e+00, -2.23481631e+00, -2.13867617e+00, -1.91570580e+00, -1.05275422e-01, -1.34011164e-01,  2.22265035e-01,  1.56508654e-01, -2.39791591e-02, -1.32857710e-01, -7.27010220e-02, -6.82982057e-02, 2.00212072e-03, -1.07996061e-01, -3.12312931e-01, -5.44487536e-01, -4.88033593e-01, -9.92830634e-01, -3.71220022e-01, -1.21610716e-01, 1.43352905e-02, -1.08418018e-01, -4.36828192e-03,  1.57561973e-02, 1.07823342e-01,  2.04696745e-01,  1.43794239e-01, -4.29851264e-01, -9.79306549e-02, -6.60753250e-02, -5.06782420e-02,  8.66644084e-02, 4.68456715e-01,  3.00995409e-01,  7.37877131e-01,  7.44206071e-01, 6.56713963e-01,  3.80049944e-01,  9.45215896e-02, -6.75834119e-01, 1.02016389e+00,  2.36192942e+00,  1.88985229e+00,  3.21862876e-01, 6.55876219e-01,  2.26277351e-01,  8.05600166e-01,  5.33835769e-01, 1.80112779e-01, -2.26377845e-01, -7.48309970e-01, -1.22804928e+00, 1.83961773e+00,  3.89954805e+00,  2.74216199e+00,  2.62144923e-01, 3.42748255e-01, -5.13344221e-02,  2.33435328e-03, -1.93242699e-01, -2.48404488e-01, -2.14879394e-01, -6.91830754e-01, -1.42037976e+00, 7.28110850e-01,  2.16355538e+00,  1.04473352e+00, -7.01683294e-03, 7.16679245e-02,  3.14171165e-01,  1.12035120e+00,  1.14066064e+00, 9.35502291e-01,  9.15020227e-01,  1.79956168e-01, -1.00086367e+00, -2.61218399e-01,  4.90974367e-01,  5.38374245e-01,  8.00658286e-01, 3.90913457e-01,  7.58647695e-02,  8.60976279e-01,  1.23345673e+00, 1.02096140e+00,  6.48010671e-01,  3.08276981e-01, -3.21810603e-01, 1.87230504e+00,  3.48291516e+00,  4.51221037e+00,  5.00022888e+00, 4.40953159e+00,  2.90588212e+00,  2.69361591e+00,  1.81407475e+00, 5.35545588e-01, -1.47165775e-01, -1.28675386e-01, -1.89976811e-01, 1.55694914e+00,  2.80073237e+00,  3.94023561e+00,  5.68829155e+00, 5.90422058e+00,  5.06978559e+00,  4.64195204e+00,  3.51084805e+00, 2.66246295e+00,  2.08979487e+00,  2.15740013e+00,  2.20186520e+00, 9.55279291e-01,  1.57765079e+00,  2.03455710e+00,  3.01999378e+00, 3.69404149e+00,  3.85265660e+00,  4.36868668e+00,  3.84096026e+00, 4.00816011e+00,  4.07808685e+00,  4.36705208e+00,  3.49690294e+00, 2.53054053e-01,  6.80628955e-01,  3.99404496e-01,  2.15931207e-01, 1.08567965e+00,  1.61564469e+00,  2.07100391e+00,  2.23477530e+00, 2.13130331e+00,  1.70783937e+00,  1.49021637e+00,  4.85985726e-01, -1.29883483e-01, -2.51192413e-02, -2.47970909e-01, -8.58031332e-01, -4.80936080e-01, -2.12621912e-01,  1.79011434e-01,  6.78313136e-01, 7.04084396e-01, -2.18578309e-01, -7.39172161e-01, -8.77240539e-01, 1.82733238e+00,  2.88126278e+00,  2.95184183e+00,  2.70605016e+00, 2.45126033e+00,  1.84742093e+00,  1.87784481e+00,  1.95478940e+00, 1.77906203e+00,  1.59013546e+00,  1.11919832e+00,  1.19024301e+00, 2.13125539e+00,  4.06906605e+00,  4.65755939e+00,  3.90046358e+00, 2.87428141e+00,  1.05324423e+00,  1.14357924e+00,  1.33199966e+00, 1.33273840e+00,  1.17252147e+00,  3.65402162e-01,  6.76709890e-01, 4.75691080e+00,  6.73710489e+00,  7.94098425e+00,  6.84719467e+00, 5.11941957e+00,  2.86678410e+00,  2.93619514e+00,  3.39001536e+00, 3.86213374e+00,  3.46555972e+00,  1.71808457e+00,  1.16830873e+00, 6.52753830e+00,  9.29941940e+00,  1.02026834e+01,  8.27517986e+00, 5.53151512e+00,  3.79855180e+00,  4.05773973e+00,  4.72062445e+00, 5.93821526e+00,  5.49592304e+00,  3.14621973e+00,  2.11836171e+00, 6.14106226e+00,  7.68712711e+00,  8.25869179e+00,  6.29666233e+00, 4.29100704e+00,  4.38397837e+00,  5.86121273e+00,  6.74276114e+00, 8.62120247e+00,  7.45002937e+00,  4.22340345e+00,  3.10203743e+00, 4.21837187e+00,  4.16049910e+00,  3.96152568e+00,  3.10055637e+00, 2.75623488e+00,  4.31621504e+00,  6.41455698e+00,  7.43919516e+00, 8.77521229e+00,  7.16569281e+00,  4.31429195e+00,  2.81936789e+00, 5.07237911e-01,  2.59501576e-01,  8.92867893e-02,  5.21217346e-01, 7.74675012e-01,  1.96241987e+00,  3.17912555e+00,  3.71147251e+00, 4.80803061e+00,  3.58990526e+00,  1.72229195e+00,  1.08105659e+00, -6.85312986e-01, -1.37019992e+00, -1.38669062e+00, -1.67196906e+00, -2.14175153e+00, -1.13714623e+00, -6.81304336e-01, -8.72689009e-01, -1.01250899e+00, -2.29235744e+00, -2.74995875e+00, -1.44360173e+00, -3.71767431e-01,  6.69010639e-01,  5.25433660e-01, -3.87938142e-01, -1.61399722e+00, -2.10095191e+00, -2.91542649e+00, -3.11457586e+00, -3.75310969e+00, -4.71152401e+00, -4.65955496e+00, -2.16029096e+00, 5.09078979e-01,  2.88840222e+00,  3.57502007e+00,  2.96205187e+00, 1.63999200e+00,  7.42570400e-01, -9.50821877e-01, -1.94264889e+00, -2.91209388e+00, -4.05094957e+00, -4.77653408e+00, -2.83652449e+00, 7.19146132e-01,  2.33228540e+00,  2.61294293e+00,  2.22030830e+00, 1.74475622e+00,  9.92043018e-01, -2.53404617e-01, -1.30974245e+00, -2.18678784e+00, -2.84488726e+00, -3.24406338e+00, -2.15257287e+00, 9.16967392e-01,  1.45321476e+00,  1.10616696e+00,  4.45894241e-01, 4.30741906e-01,  3.97652328e-01,  1.97043195e-02, -5.86826324e-01, -9.83263850e-01, -1.41370916e+00, -1.57096338e+00, -1.47407246e+00, -9.54288840e-02, -1.07413165e-01, -2.53585845e-01, -6.68501318e-01, -1.09108222e+00, -1.41374791e+00, -1.37961483e+00, -1.33093750e+00, -1.22135711e+00, -1.23615670e+00, -1.18483818e+00, -1.12432218e+00, 7.84668982e-01,  5.14018595e-01,  1.71513215e-01, -2.53772110e-01, -6.14385664e-01, -1.07868659e+00, -9.72193420e-01, -8.67401898e-01, -8.84424210e-01, -8.97709310e-01, -1.10786533e+00, -1.39587379e+00, 1.26013088e+00,  6.80355430e-01,  9.03429508e-01,  7.39995360e-01, -3.27267312e-02, -1.13965344e+00, -8.05546939e-01, -6.76925480e-01, -6.18051708e-01, -7.03082442e-01, -1.14730489e+00, -1.48453403e+00, 1.83658087e+00,  1.28393054e+00,  1.78704321e+00,  2.08989739e+00, 1.03579545e+00, -6.88797593e-01, -8.73098135e-01, -9.05600727e-01, -7.24273443e-01, -3.62881213e-01, -8.34513843e-01, -1.07515144e+00, 3.60779428e+00,  3.65911531e+00,  4.64163589e+00,  4.88622284e+00, 3.03628898e+00,  4.18613017e-01, -1.07312188e-01,  3.06960382e-02, 5.28995156e-01,  1.15494347e+00,  6.28016889e-01,  1.31704837e-01, 5.01448774e+00,  5.92717457e+00,  7.31523752e+00,  6.86956167e+00, 5.31586027e+00,  2.28399682e+00,  1.15399373e+00,  2.13536859e+00, 3.31516075e+00,  4.08689737e+00,  3.51568651e+00,  2.26272297e+00, 3.14688849e+00,  3.53596544e+00,  4.50554657e+00,  3.56174254e+00, 2.98580241e+00,  2.15088034e+00,  1.10421586e+00,  1.91645348e+00, 3.67495108e+00,  5.97147989e+00,  5.89869499e+00,  4.28854990e+00, 2.40647602e+00,  3.19242311e+00,  2.25585008e+00,  7.21512079e-01, -6.87548280e-01, -4.87557352e-01, -1.05805838e+00, -1.53601301e+00, -5.92979610e-01,  1.82358813e+00,  2.64410806e+00,  2.45617604e+00, 1.32621968e+00,  3.08273458e+00,  1.50336862e+00, -1.72005102e-01, -1.68508148e+00, -1.22856915e+00, -9.64797974e-01, -1.60252225e+00, -2.04152513e+00, -1.56089509e+00, -1.46833038e+00, -3.06677967e-01, -8.40805054e-01, -2.26669326e-01, -2.69418925e-01, -3.07442486e-01, -6.05868399e-01, -8.18108857e-01, -8.22385728e-01, -1.38291514e+00, -2.76625848e+00, -3.04687858e+00, -2.97339344e+00, -1.25833297e+00, -1.37627208e+00, -2.00959849e+00, -2.00470877e+00, -2.08642817e+00, -2.43969297e+00, -2.70276880e+00, -2.28362274e+00, -1.92919588e+00, -2.05303407e+00, -1.75703061e+00, -1.67313313e+00, -5.87036550e-01, 4.82276343e-02,  8.85327831e-02,  8.92890543e-02,  3.42999958e-02, -3.53300869e-02, -4.53895569e-01, -9.19616282e-01, -1.21401334e+00, -1.30457759e+00, -1.10840762e+00, -5.13802648e-01, -2.32243255e-01, 2.07545590e+00,  2.15210533e+00,  2.10388970e+00,  1.72356784e+00, 1.53793323e+00,  1.54396200e+00,  1.62052226e+00,  1.65643525e+00, 1.72507191e+00,  1.92776489e+00,  2.02635241e+00,  1.85531902e+00, 2.20925641e+00,  2.27696514e+00,  2.23279548e+00,  2.25943804e+00, 1.68180907e+00,  2.15619588e+00,  2.31204391e+00,  2.34423828e+00, 2.46401119e+00,  2.58230686e+00,  2.23899364e+00,  1.71971405e+00, 1.74692237e+00,  2.06374931e+00,  1.93018770e+00,  1.90165305e+00, 6.45568311e-01,  1.34156477e+00,  1.54455674e+00,  1.60118794e+00, 1.79466414e+00,  2.07178831e+00,  1.79862857e+00,  1.33164370e+00, 4.67401184e-02,  1.48379040e+00,  1.53317940e+00,  1.69489419e+00, 3.10968887e-03,  1.20025694e+00,  1.12358296e+00,  7.68854916e-01, 8.70883405e-01,  9.72328067e-01,  1.45048988e+00,  1.19637024e+00, -2.04247308e+00, -1.62871763e-01, -2.80948848e-01,  1.29046947e-01, 5.16147278e-02,  1.72286260e+00,  1.60311389e+00,  7.72009254e-01, 3.92842107e-02, -3.42271715e-01,  1.15872979e-01,  8.11397910e-01, -2.21114731e+00, -1.38190317e+00, -1.70950556e+00, -2.55123407e-01, 6.20203435e-01,  1.64260626e+00,  1.02571368e+00, -4.57831055e-01, -1.45051384e+00, -1.48920667e+00, -6.67396307e-01,  4.73022938e-01, -3.18423820e+00, -2.66686869e+00, -3.66872025e+00, -2.40947056e+00, -2.01880598e+00, -1.69984996e+00, -2.07591438e+00, -3.21109247e+00, -3.86782718e+00, -3.33818841e+00, -2.53977013e+00, -7.38719046e-01, -2.39550853e+00, -1.77442813e+00, -1.79573691e+00, -2.61418080e+00, -3.59042525e+00, -4.18078852e+00, -5.03062773e+00, -6.14175415e+00, -7.03640318e+00, -7.39172459e+00, -6.15703392e+00, -3.59209752e+00, -1.51563632e+00,  5.97078800e-01,  2.43060946e+00,  1.01007187e+00, -9.48320091e-01, -2.41180897e+00, -4.12401056e+00, -6.10063887e+00, -7.13456345e+00, -6.54850674e+00, -5.35301828e+00, -3.44722223e+00, -3.93624514e-01,  1.98651779e+00,  3.75381231e+00,  2.54313016e+00, 4.45687979e-01, -1.16336381e+00, -2.59787750e+00, -3.54243851e+00, -4.66505194e+00, -3.64252973e+00, -2.83006096e+00, -2.30730128e+00, 6.87895775e-01,  1.58463740e+00,  2.90814567e+00,  2.40731525e+00, 1.20764387e+00,  3.42040569e-01,  1.09011717e-01,  1.19385533e-01, 1.13903113e-01,  6.79787338e-01,  7.44591832e-01, -1.71600997e-01, 9.99814630e-01,  9.47678804e-01,  1.51764441e+00,  1.26056266e+00, 2.72048861e-01, -2.25819573e-01,  3.81889045e-01,  7.65273035e-01, 8.27779412e-01,  1.37457263e+00,  1.95321071e+00,  2.16369152e+00, -1.39173448e+00, -1.29821074e+00, -1.34709442e+00, -1.74437654e+00, -1.61455262e+00, -1.19522822e+00, -1.09363854e+00, -1.09564328e+00, -1.00574017e+00, -1.00441527e+00, -1.17607939e+00, -1.32694113e+00, -2.05734682e+00, -1.87311733e+00, -1.77602708e+00, -2.15743279e+00, -1.63501930e+00, -9.09171522e-01, -8.29857588e-01, -9.43487525e-01, -8.76227260e-01, -9.59175766e-01, -1.35607898e+00, -1.27423930e+00, -2.74045920e+00, -3.04510403e+00, -3.55800748e+00, -3.80640006e+00, -2.38592792e+00, -1.21462846e+00, -9.25521910e-01, -9.50195789e-01, -9.53705966e-01, -1.31053925e+00, -1.66802168e+00, -1.29193282e+00, -2.54075861e+00, -4.25944996e+00, -5.34695673e+00, -4.57383490e+00, -2.80247593e+00, -2.60454941e+00, -2.74041247e+00, -2.73415804e+00, -2.56499028e+00, -2.22862530e+00, -2.34958386e+00, -1.60167849e+00, -1.69339597e+00, -3.96801877e+00, -2.87813902e+00, -1.08166790e+00, -5.37750483e-01, -2.30542088e+00, -3.99482799e+00, -4.64201450e+00, -3.87257147e+00, -2.54970431e+00, -2.73298383e+00, -2.16711974e+00, 1.32320738e+00,  8.93645883e-02,  1.53138328e+00,  3.24357176e+00, 3.08298135e+00,  1.35132456e+00, -7.98714638e-01, -2.26351333e+00, -1.93728518e+00, -1.10895598e+00, -1.69863808e+00, -1.58606458e+00, 4.89004612e+00,  5.03675842e+00,  6.36806488e+00,  6.83562374e+00, 7.45332956e+00,  6.86938429e+00,  4.55678082e+00,  3.16194057e+00, 3.25337887e+00,  3.53270030e+00,  3.05093861e+00,  1.88926101e+00, 3.11917281e+00,  3.80563068e+00,  4.11052036e+00,  5.30027723e+00, 6.20528364e+00,  6.76672316e+00,  7.09133148e+00,  6.51645708e+00, 7.88228083e+00,  9.54928207e+00,  8.25047970e+00,  5.05660343e+00, -3.71142566e-01, -1.65760554e-02,  5.29846132e-01,  1.34077108e+00, 1.41364694e+00,  2.27572918e+00,  3.23810863e+00,  3.70791578e+00, 5.83133841e+00,  7.57466269e+00,  5.97232771e+00,  3.69583011e+00, -2.37427449e+00, -2.98678327e+00, -2.36460972e+00, -1.48852825e+00, -1.34318149e+00, -1.49688208e+00, -1.25423336e+00, -5.62843263e-01, 5.31857014e-01,  1.55078864e+00,  1.36555278e+00,  2.60219789e+00, -2.49847555e+00, -3.08277321e+00, -2.68683290e+00, -2.08293486e+00, -2.24371910e+00, -2.52175140e+00, -2.81302953e+00, -3.34399319e+00, -2.83553362e+00, -2.07082629e+00, -1.76047242e+00,  1.11837184e+00, -1.23490441e+00, -1.88734758e+00, -1.71083164e+00, -1.10659742e+00, -9.03634727e-01, -1.11177170e+00, -1.48899865e+00, -2.03690386e+00, -1.79673183e+00, -1.64559090e+00, -1.42352176e+00, -5.12142479e-01, 3.55579674e-01,  6.29184306e-01,  9.57525134e-01,  7.15049207e-01, 2.33719528e-01, -1.27223819e-01, -2.02692479e-01, -1.89092457e-01, -1.53652996e-01, -1.93855107e-01, -4.82304208e-03,  5.80523133e-01, 5.20683825e-01,  1.07162881e+00,  7.96104431e-01,  5.10028541e-01, 5.17479718e-01,  4.78344828e-01,  5.86933494e-01,  6.16518497e-01, 6.11997545e-01,  3.02932829e-01,  3.75679940e-01,  7.06707776e-01, -4.72861081e-01, -1.25639629e+00, -9.99356389e-01, -3.44788194e-01, 1.41533241e-01,  8.43667328e-01,  1.30094612e+00,  9.70045507e-01, 8.38203371e-01,  6.98053658e-01,  4.70770657e-01,  1.03020656e+00, -1.57632625e+00, -4.65955544e+00, -3.49064612e+00, -1.00300634e+00, 3.22006851e-01,  9.67654169e-01,  1.17553413e+00,  6.84834838e-01, 8.41895044e-01,  1.53716111e+00,  1.51791537e+00,  1.11365306e+00, -5.76380849e-01, -4.46904325e+00, -2.63198709e+00,  9.47077811e-01, 1.98720288e+00,  6.65263653e-01,  1.10698298e-01,  1.62141368e-01, 3.97052705e-01,  7.74776995e-01,  5.95968604e-01,  1.82025626e-01, 6.06586576e-01, -9.57949758e-01,  1.51234162e+00,  3.28122497e+00, 3.64232969e+00,  1.82601523e+00,  3.63096803e-01,  9.20982063e-01, 9.61727858e-01,  1.85052142e-01,  9.23879743e-02, -5.05222864e-02, 4.26207352e+00,  4.95886374e+00,  6.68752098e+00,  7.82897472e+00, 8.46876621e+00,  8.23048592e+00,  5.51494741e+00,  3.81308222e+00, 3.09680176e+00,  2.90206933e+00,  2.16270447e+00,  2.10187626e+00, 8.37183189e+00,  1.03087559e+01,  1.06333780e+01,  1.13322983e+01, 1.28496971e+01,  1.36352358e+01,  1.22171640e+01,  9.51123619e+00, 7.45921850e+00,  8.79083061e+00,  7.95407009e+00,  6.15925980e+00, 5.76407385e+00,  7.67718220e+00,  7.20120382e+00,  8.88513565e+00, 1.00405588e+01,  1.04766035e+01,  1.09602089e+01,  1.10379353e+01, 1.13398972e+01,  1.26419716e+01,  9.94631767e+00,  8.11049843e+00, 1.79247773e+00,  2.06243539e+00,  2.24715829e+00,  3.54526520e+00, 4.27328062e+00,  5.05048943e+00,  6.55663729e+00,  8.03846455e+00, 8.36257458e+00,  1.02642069e+01,  9.17605114e+00,  8.90962029e+00, 2.56413907e-01, -3.21122915e-01, -3.33402634e-01,  5.17165996e-02, 4.79139388e-01,  1.35701823e+00,  2.92961454e+00,  3.62398028e+00, 4.07316256e+00,  5.47526693e+00,  5.65736294e+00,  7.05356550e+00, -2.64257312e-01, -3.82508665e-01, -4.73692626e-01, -9.56180274e-01, -7.65488088e-01, -2.69314975e-01,  3.66618752e-01,  6.47670746e-01, 1.37973869e+00,  2.64413095e+00,  2.79610157e+00,  3.49808621e+00, -6.13868415e-01, -5.48759341e-01, -2.95609981e-01,  3.04358155e-01, 6.41679466e-01,  5.53112447e-01,  5.61999559e-01,  5.53074062e-01, 4.70554858e-01,  2.97143042e-01,  4.22549486e-01, -1.48978204e-01, -1.01635695e+00, -9.40375686e-01, -8.32549572e-01,  1.14839897e-01, 6.86485827e-01,  3.83476615e-01,  3.95009488e-01,  4.77958143e-01, 3.48236173e-01,  2.80838281e-01,  6.12189353e-01,  1.51533276e-01, -1.23657978e+00, -1.17694008e+00, -1.12776411e+00, -5.64592741e-02, 1.09374774e+00,  5.10815859e-01,  2.70345509e-01,  6.11482859e-01, 7.97134221e-01,  4.67506528e-01,  5.80021679e-01,  1.36573806e-01, -1.09412873e+00, -7.16910601e-01, -6.67306542e-01, -6.95160329e-02, 5.76363921e-01, -2.10811555e-01, -7.90200830e-01, -2.77495831e-01, 3.60525519e-01,  4.23889935e-01,  3.43732476e-01, -2.63325632e-01, -1.40008783e+00, -7.62933612e-01, -7.53905594e-01, -3.32093269e-01, 1.77044999e-02, -2.83922642e-01, -9.89834785e-01, -4.99641091e-01, 8.27949643e-02,  3.29986632e-01, -3.95956077e-02, -7.65567422e-01, -2.09011269e+00, -2.28534842e+00, -2.09952855e+00, -1.08510602e+00, -4.70444024e-01, -6.19918346e-01, -1.29553866e+00, -1.57048512e+00, -1.41950095e+00, -1.19925880e+00, -1.17697692e+00, -1.84934258e+00, -2.62655091e+00, -2.65538430e+00, -2.04521346e+00, -1.12388468e+00, -7.79925644e-01, -1.15715933e+00, -1.49143088e+00, -2.05436897e+00, -1.51627696e+00, -1.72961640e+00, -2.44649291e+00, -3.09121656e+00, -3.07933640e+00, -2.96787596e+00, -2.11996007e+00, -1.60442817e+00, -1.32538688e+00, -1.16654241e+00, -1.83431315e+00, -2.25826931e+00, -1.95487857e+00, -2.08534336e+00, -2.55626988e+00, -2.69508004e+00, -2.87230396e+00, -2.19005966e+00, -8.91602337e-01, -4.51710783e-02, 9.26017389e-03, -2.79085368e-01, -1.43269646e+00, -2.40735126e+00, -2.41385579e+00, -2.48517776e+00, -1.99086893e+00, -2.29954028e+00, -2.26907754e+00, -1.80215442e+00, -1.37573743e+00, -3.21930736e-01, 1.82830274e-01, -1.41106173e-03, -1.16416311e+00, -2.10095882e+00, -2.18330598e+00, -2.28584123e+00, -1.89686322e+00, -1.78645480e+00, -2.15563059e+00, -1.86200106e+00, -1.34505951e+00, -4.57817197e-01, -3.05276543e-01, -3.58196825e-01, -9.23127055e-01, -1.25360513e+00, -1.32636142e+00, -1.71543622e+00, -1.35234928e+00, -1.56524098e+00, -2.25910425e+00, -2.17824626e+00, -1.77940571e+00, -1.14865220e+00, -1.11198592e+00, -1.11406171e+00, -1.03065097e+00, -8.22593570e-01, -8.93979788e-01, -1.31496334e+00, -1.78461695e+00, -2.04033160e+00, 5.34219325e-01, -2.05452114e-01,  8.95712227e-02,  9.38410342e-01, 1.57760537e+00,  2.38660955e+00,  2.41161513e+00,  2.38475227e+00, 2.30753326e+00,  2.01494026e+00,  1.52573729e+00,  1.40481544e+00, -2.75555626e-02, -1.03104568e+00, -7.45530963e-01,  7.87727907e-02, 1.08688903e+00,  2.59893322e+00,  2.72326803e+00,  2.82675338e+00, 2.86448669e+00,  2.60227108e+00,  2.55975986e+00,  2.50691509e+00, -5.90838194e-01, -1.36271381e+00, -1.34038162e+00, -7.37974048e-01, -5.50686657e-01,  1.80534589e+00,  1.80378461e+00,  1.65332794e+00, 1.50484574e+00,  1.38519168e+00,  1.53560448e+00,  1.65019035e+00, -1.00764620e+00, -1.80563891e+00, -1.05195296e+00, -1.62441289e+00, -2.19038510e+00, -6.18393719e-01, -5.19767284e-01, -9.75265503e-01, -1.53420913e+00, -1.35932732e+00,  4.29019853e-02,  4.72447485e-01, 1.48470119e-01, -5.20002663e-01, -5.97167723e-02, -1.03493738e+00, -1.94548678e+00, -1.67037928e+00, -2.31307697e+00, -2.47782016e+00, -2.59367728e+00, -2.07441616e+00, -5.72180450e-01, -3.53309453e-01, 7.69633532e-01,  1.21736073e+00,  6.95183337e-01, -1.59454137e-01, -9.00015533e-01, -1.27645612e+00, -2.42037201e+00, -1.74862957e+00, -1.83842838e+00, -8.29121113e-01,  6.83600605e-01,  8.09199512e-01, 1.29655212e-01,  7.16279209e-01, -4.28098351e-01, -1.54369795e+00, -2.43203568e+00, -2.89476609e+00, -2.66689205e+00, -1.48179245e+00, -1.04868042e+00,  7.14223832e-02,  1.43765688e+00,  1.53514552e+00, -2.07402602e-01, -1.15238369e+00, -2.38796496e+00, -3.08382607e+00, -4.43274069e+00, -4.55386162e+00, -4.30540752e+00, -2.89940023e+00, -2.00474858e+00, -1.20471382e+00, -6.55304551e-01,  9.42572951e-02, 1.77740550e+00, -8.20176601e-02, -1.18851066e+00, -2.06378961e+00, -3.14110374e+00, -3.51324368e+00, -3.60461879e+00, -3.55525970e+00, -3.49918485e+00, -2.88335514e+00, -1.94909501e+00, -1.28574359e+00, 3.27312684e+00,  3.23793197e+00,  2.72887850e+00,  1.39492381e+00, -1.04607612e-01, -5.94539165e-01, -9.96370256e-01, -1.67549407e+00, -2.63840747e+00, -3.40865874e+00, -2.62168694e+00, -2.30953169e+00, 2.56686091e+00,  3.46489453e+00,  4.01886702e+00,  4.04583216e+00, 3.65710902e+00,  4.46180677e+00,  4.57800674e+00,  3.94533801e+00, 2.81307411e+00,  1.06157398e+00,  1.50328547e-01, -6.43978000e-01, 2.49437928e+00,  3.28138256e+00,  3.42146659e+00,  3.76999807e+00, 3.49730968e+00,  3.56409311e+00,  3.72743249e+00,  4.06650209e+00, 4.72884130e+00,  5.00760889e+00,  4.17553139e+00,  2.77345681e+00, -4.52550977e-01, -1.04157889e+00, -9.02023196e-01, -5.60881972e-01, -2.83497453e-01, -2.42234692e-01, -3.09467196e-01, -3.59792590e-01, -4.69022632e-01, -5.24960160e-01, -6.25336885e-01, -6.45522773e-01, -3.39746326e-01, -8.40701520e-01, -1.23535907e+00, -7.06740499e-01, -1.56085968e-01, -2.77329654e-01, -4.09729064e-01, -4.97641951e-01, -6.52270854e-01, -7.93058872e-01, -6.63286328e-01, -8.08356777e-02, -4.34839606e-01, -1.47648621e+00, -2.16335750e+00, -1.91686881e+00, -7.85242260e-01, -1.12704134e+00, -1.17723501e+00, -1.02190328e+00, -9.31859076e-01, -9.34106112e-01, -1.15035689e+00, -1.69467852e-01, -1.39793587e+00, -3.21232581e+00, -4.17209053e+00, -2.68147922e+00, -7.96251714e-01, -1.46595657e+00, -1.57620513e+00, -9.91346359e-01, -7.72911370e-01, -5.28067648e-01, -7.88047612e-01,  9.26579237e-02, -2.99258924e+00, -5.01556873e+00, -4.01853371e+00, -2.27178288e+00, -1.22081065e+00, -2.21292996e+00, -2.59009194e+00, -1.47478068e+00, -1.42035735e+00, -9.31970179e-01, -5.45121133e-01,  4.60559279e-01, -2.83447194e+00, -4.03771257e+00, -3.69404888e+00, -3.18922305e+00, -2.67119813e+00, -3.25882816e+00, -3.54527831e+00, -2.72184229e+00, -2.49949527e+00, -2.17106509e+00, -1.98507464e+00, -7.29934990e-01, -1.48913813e+00, -2.23399377e+00, -3.37025690e+00, -3.58551097e+00, -3.60934329e+00, -3.99700499e+00, -4.75015020e+00, -4.19270420e+00, -3.37607384e+00, -2.58733416e+00, -1.97723389e+00, -1.09884799e+00, -1.92433178e+00, -2.79242206e+00, -2.85219240e+00, -2.97549820e+00, -3.14057112e+00, -3.55351377e+00, -3.68386745e+00, -3.05287886e+00, -2.24189043e+00, -1.23281837e+00, -1.08821075e-02, -2.51804709e-01, -1.16581059e+00, -1.88967228e+00, -1.88179743e+00, -2.50592995e+00, -2.79532957e+00, -2.73860478e+00, -2.59344435e+00, -2.31522822e+00, -2.11462235e+00, -1.40342641e+00, -1.02023971e+00, -1.68919659e+00, -1.41006911e+00, -2.55679464e+00, -2.40491271e+00, -2.09929204e+00, -1.53671134e+00, -8.10529709e-01, -5.47727525e-01, -5.58843672e-01, -8.44358087e-01, -1.34032345e+00, -2.34085417e+00, -2.87968373e+00, -1.79703522e+00, -2.81603360e+00, -2.72479606e+00, -1.65099037e+00, -8.15445304e-01, -4.62616891e-01, -1.07524820e-01,  4.85098213e-01, -1.38514683e-01, -1.03813934e+00, -2.63653326e+00, -3.11068463e+00, -1.51653552e+00, -1.61543262e+00, -1.28191411e+00, -9.18702364e-01, -3.94767404e-01, -2.00559080e-01,  4.43063900e-02,  3.41670036e-01, -2.44035244e-01, -1.13071501e+00, -2.22360826e+00, -2.50143552e+00, -1.40375483e+00, -1.64450192e+00, -1.38360810e+00, -1.11067224e+00, -8.65329981e-01, -4.53518122e-01, -4.73533690e-01, -4.71973419e-01, -4.53889608e-01, -3.46064419e-01, -4.37477499e-01, -5.93302071e-01, -2.24889493e+00, -2.30665112e+00, -1.68914282e+00, -1.35749865e+00, -7.17229486e-01,  3.44729871e-01,  2.68002570e-01,  2.41946429e-01, 2.08187208e-01,  3.00368547e-01,  2.94320136e-02, -5.35757720e-01, -3.29740286e+00, -3.49119592e+00, -2.85941410e+00, -2.13488913e+00, -1.60040128e+00, -4.22810733e-01, -5.93438327e-01, -7.64049888e-01, -1.18984807e+00, -9.13334370e-01, -8.56158435e-01, -1.14139938e+00, -3.48485065e+00, -4.26940441e+00, -3.37580490e+00, -2.60479784e+00, -2.02189231e+00, -1.59068966e+00, -1.89916050e+00, -1.78967893e+00, -2.07684088e+00, -2.06142592e+00, -1.75833094e+00, -1.99656105e+00, -2.65878606e+00, -3.01842499e+00, -3.00420260e+00, -2.63197613e+00, -2.34415627e+00, -2.57055092e+00, -2.65823197e+00, -2.26356006e+00, -2.54241848e+00, -2.60694432e+00, -2.36226869e+00, -2.31979775e+00, -2.97802377e+00, -2.63250566e+00, -2.87565565e+00, -3.10410261e+00, -3.17983389e+00, -3.63251424e+00, -3.20677543e+00, -2.59760547e+00, -2.99338341e+00, -2.99661779e+00, -2.42075968e+00, -1.56541383e+00, -2.77229238e+00, -2.48964262e+00, -3.52003765e+00, -3.88347673e+00, -4.31408739e+00, -4.37182760e+00, -3.73750544e+00, -3.43995047e+00, -3.98384476e+00, -4.56653452e+00, -4.19161844e+00, -2.13767576e+00, -2.23788762e+00, -2.61265802e+00, -3.13005614e+00, -3.75697207e+00, -4.51396370e+00, -4.81383991e+00, -4.57907772e+00, -4.77901220e+00, -5.22520399e+00, -5.87461138e+00, -5.82099104e+00, -3.56746078e+00, -5.52427769e-01, -1.20688653e+00, -2.13897753e+00, -2.59894395e+00, -3.40427208e+00, -3.70265794e+00, -3.83326840e+00, -4.33892584e+00, -4.73786354e+00, -4.57265139e+00, -4.35247135e+00, -2.81027579e+00, 8.90889168e-01,  1.30054009e+00,  9.49963450e-01, -2.67848700e-01, -1.61393917e+00, -2.63853264e+00, -2.79399872e+00, -2.68798709e+00, -2.84473395e+00, -2.98430419e+00, -2.60624433e+00, -1.29948390e+00, 6.77705228e-01,  1.40993202e+00,  1.71317506e+00,  1.39709032e+00, 7.48278439e-01,  1.30659297e-01, -1.47443712e-01, -4.34935957e-01, -7.50395358e-01, -7.36850917e-01, -3.36988211e-01,  5.12297451e-01, 5.36437631e-01,  1.13589430e+00,  1.89864564e+00,  1.96998453e+00, 1.59005582e+00,  1.06360102e+00,  9.06808794e-01,  1.20843935e+00, 1.31445169e+00,  1.47526670e+00,  1.93672681e+00,  1.79088068e+00, -1.93471640e-01, -2.69947410e-01, -1.96179047e-01,  4.36083637e-02, 2.26206169e-01,  1.40332267e-01,  4.73007634e-02,  1.19850482e-03, -8.29253718e-02, -1.07317179e-01,  1.38733745e-01,  1.94056079e-01, -8.65190923e-01, -4.61639255e-01, -1.75318271e-01,  2.73930490e-01, 3.20986032e-01,  1.61091238e-01, -6.08309731e-02, -1.21406659e-01, -7.51518607e-02, -3.83185595e-02, -2.27282420e-01,  1.00955740e-01, 4.36824113e-01,  2.23798776e+00,  1.82243395e+00,  1.05200362e+00, 6.53409302e-01,  5.14205992e-02, -2.65908450e-01,  1.34927863e-02, 6.13622069e-01,  9.82212782e-01,  4.46606666e-01,  8.74599665e-02, 1.15856564e+00,  4.97153616e+00,  3.92448735e+00,  1.83528388e+00, 1.46765560e-01, -1.19928133e+00, -1.02146006e+00, -4.27497566e-01, 1.78463846e-01,  2.45634809e-01, -5.62386572e-01, -5.75657785e-01, 2.80555114e-02,  2.61191344e+00,  1.87948406e+00,  5.40892005e-01, -1.33009052e+00, -1.51227820e+00, -7.68375039e-01, -6.69864297e-01, -3.59867215e-01,  9.93868411e-02, -3.45189035e-01, -8.69468570e-01, -2.19971156e+00, -1.79023051e+00, -2.16775370e+00, -2.60010266e+00, -3.47513795e+00, -2.67426205e+00, -1.16092134e+00, -1.21829617e+00, -1.33832693e+00, -8.56055200e-01, -9.01219368e-01, -1.56181705e+00, -3.38504148e+00, -3.13321495e+00, -2.68274975e+00, -3.06667733e+00, -3.91444111e+00, -3.47274899e+00, -2.82431769e+00, -3.29727030e+00, -3.99402499e+00, -4.01740551e+00, -2.61273646e+00, -2.44528913e+00, -2.89781260e+00, -8.07469308e-01, -4.48853076e-01, -1.67807984e+00, -2.55084586e+00, -2.41095543e+00, -2.11137867e+00, -3.20203543e+00, -4.26790333e+00, -4.28045559e+00, -3.17427397e+00, -3.15204144e+00, -9.03784573e-01,  7.51659811e-01,  1.18398511e+00,  8.56859088e-02, -4.45029676e-01, -4.64751661e-01, -1.04543245e+00, -2.29500318e+00, -3.17852211e+00, -3.32753611e+00, -2.61032486e+00, -2.15465832e+00, 1.29438594e-01,  7.15711653e-01,  2.27036908e-01, -1.52838469e-01, 1.96145490e-01,  6.09852895e-02, -8.35932970e-01, -1.41549623e+00, -1.71082532e+00, -1.42077518e+00, -1.08261335e+00, -6.50142312e-01, 1.35833293e-01,  3.92407626e-01, -4.69489217e-01, -5.67971528e-01, -3.53876442e-01, -3.09750766e-01, -1.02330697e+00, -1.10861731e+00, -1.83208734e-01,  2.65897036e-01,  2.02203020e-01,  4.76451039e-01, -9.93244767e-01, -5.24089098e-01, -6.80443585e-01, -7.99467206e-01, -8.51849973e-01, -6.50191963e-01, -7.09668934e-01, -6.72745943e-01, -2.74015725e-01,  1.48971826e-01,  4.03990969e-02, -5.86348116e-01, -7.76365936e-01, -1.04862821e+00, -1.18897653e+00, -1.53352940e+00, -1.56284750e+00, -1.45478559e+00, -1.53993714e+00, -1.55672932e+00, -1.57073128e+00, -1.42009699e+00, -1.41852498e+00, -1.41045654e+00, -1.75770253e-01, -1.85832530e-01, -3.60241801e-01, -1.64096105e+00, -2.04907513e+00, -1.97450650e+00, -1.92172682e+00, -1.98188329e+00, -1.85289538e+00, -1.64309251e+00, -1.38672912e+00, -9.62943733e-01, -8.67571771e-01, -8.61747749e-03,  2.30004817e-01, -1.71353424e+00, -2.06702518e+00, -2.03706956e+00, -2.02005744e+00, -1.97029674e+00, -2.13950229e+00, -2.26085544e+00, -2.12732196e+00, -1.10349762e+00, -5.62492669e-01, -3.16416621e-01, -7.25125894e-02, -1.35121143e+00, -1.22314322e+00, -1.37605977e+00, -1.01162434e+00, -2.71193773e-01, -6.94536984e-01, -1.59379494e+00, -2.31320262e+00, -1.06315517e+00, -6.31041229e-01, -8.27959061e-01, -1.32868135e+00, -1.42779112e+00, -1.35083985e+00, -2.05214691e+00, -1.63207531e+00, -9.30231035e-01, -1.47402155e+00, -2.26389313e+00, -2.49384212e+00, -1.07488954e+00, -3.63994777e-01, -6.63095713e-01, -2.03369904e+00, -2.20260429e+00, -2.47355151e+00, -3.01288605e+00, -2.44655204e+00, -1.78908837e+00, -1.88621402e+00, -2.25037551e+00, -2.36230111e+00, -1.11311841e+00, 4.22839731e-01, -7.76160359e-01, -1.88096368e+00, -1.53804541e+00, -1.42796826e+00, -1.99752820e+00, -1.71260691e+00, -8.00103366e-01, -1.03904128e+00, -1.50026870e+00, -1.76991987e+00, -1.04083216e+00, -5.11799276e-01, -1.76401019e+00, -1.31808829e+00,  8.37706998e-02, 2.49980669e-02, -5.10157168e-01, -9.61766616e-02,  3.94602865e-01, 7.99477041e-01,  5.17148912e-01, -3.10226202e-01, -2.06893817e-01, -1.19076550e+00, -3.00355983e+00, -2.41901684e+00, -1.93868423e+00, -1.38847911e+00, -6.61900699e-01,  7.71749735e-01,  2.16066337e+00, 2.33572555e+00,  1.38526034e+00,  2.01000914e-01, -3.86896789e-01, -1.10410857e+00, -2.77851844e+00, -3.25059223e+00, -3.32732511e+00, -2.37898684e+00, -1.02922380e+00, -6.44584119e-01, -3.22125733e-01, 2.29760289e-01,  2.80982554e-01, -7.98712373e-01, -1.15408194e+00, -1.74040937e+00, -2.67672634e+00, -3.55202866e+00, -3.98431778e+00, -3.63563442e+00, -3.66440105e+00, -3.99486613e+00, -3.86315727e+00, -3.78836632e+00, -3.60963702e+00, -3.71779585e+00, -3.36822772e+00, -1.39793241e+00, -1.63142228e+00, -1.98858976e+00, -2.21641541e+00, -2.28321719e+00, -2.44285393e+00, -2.94567180e+00, -3.45627069e+00, -4.18560934e+00, -4.45230103e+00, -4.18558455e+00, -3.90925002e+00, -1.13655865e+00, -1.31024754e+00, -9.95436251e-01, -7.82864690e-01, -7.62485504e-01, -8.35807681e-01, -8.99627864e-01, -9.18954074e-01, -7.90021360e-01, -6.13702238e-01, -7.58030176e-01, -8.35277498e-01, -1.60402036e+00, -1.93541896e+00, -1.86731553e+00, -1.55980790e+00, -1.27363372e+00, -1.02847552e+00, -1.08911121e+00, -1.15117490e+00, -1.05445719e+00, -9.17296350e-01, -1.02333856e+00, -6.79095805e-01, -2.66704392e+00, -2.83346939e+00, -3.43116975e+00, -2.68274522e+00, -1.53053081e+00, -4.53387648e-01, -6.80958569e-01, -8.20990324e-01, -1.13191307e+00, -1.20932901e+00, -7.87745476e-01, -5.27521729e-01, -3.36577463e+00, -2.73082924e+00, -3.48231173e+00, -4.02562809e+00, -1.89908206e+00,  4.19856310e-01,  6.99495792e-01,  2.57450968e-01, -8.34994793e-01, -1.06258059e+00, -1.03332555e+00, -6.69939220e-01, -2.17465544e+00, -5.63350022e-02, -2.65122581e+00, -4.63227272e+00, -2.95013475e+00, -9.47859824e-01, -4.04940218e-01, -6.08500719e-01, -1.61023247e+00, -2.04030824e+00, -2.36297107e+00, -1.47919989e+00, -1.13937926e+00,  1.11616659e+00, -1.32917583e+00, -2.98103237e+00, -2.15648484e+00, -1.06789410e+00, -8.19068134e-01, -1.24294412e+00, -1.78620720e+00, -2.05508709e+00, -2.31590509e+00, -1.89667273e+00, 8.10038805e-01,  1.86385500e+00,  1.38760293e+00,  2.28609204e+00, 1.57881820e+00,  1.12013924e+00,  1.16934109e+00,  2.02062860e-01, -6.69098735e-01, -8.24895024e-01, -1.32673192e+00, -1.51304770e+00, 1.40469325e+00,  2.28927755e+00,  3.95313048e+00,  6.42929554e+00, 6.45245361e+00,  4.87200165e+00,  4.59752035e+00,  4.52592516e+00, 4.00069189e+00,  3.33498216e+00,  2.17588401e+00,  8.99137616e-01, 6.27372563e-01,  8.92776906e-01,  3.59072971e+00,  6.07637453e+00, 6.23000956e+00,  5.74706745e+00,  5.40233994e+00,  6.30736685e+00, 6.69479656e+00,  6.56236982e+00,  5.70444727e+00,  3.30485868e+00, -2.07370833e-01, -3.22737128e-01,  1.45631003e+00,  2.62387085e+00, 3.12627816e+00,  3.96082902e+00,  4.39577866e+00,  5.01642418e+00, 5.32189465e+00,  6.78181887e+00,  6.68333912e+00,  4.55514193e+00, -4.59808916e-01, -4.81023788e-01, -2.44128555e-01,  1.99768916e-01, 9.63726282e-01,  1.42762601e+00,  1.58065748e+00,  1.88295007e+00, 2.14189029e+00,  3.06555343e+00,  3.53266287e+00,  2.04645634e+00, -9.38092768e-01, -1.24078429e+00, -1.28099966e+00, -9.86272991e-01, -4.03515756e-01, -2.54803270e-01, -1.78113222e-01,  1.51923418e-01, 3.62645805e-01,  3.15554172e-01, -1.94209412e-01, -2.60972351e-01, 9.84507143e-01,  1.10742879e+00,  1.23502123e+00,  8.75447690e-01, 7.96250761e-01,  1.07850790e+00,  1.19398654e+00,  1.16495645e+00, 1.13112020e+00,  1.17627013e+00,  1.37926352e+00,  2.80790567e+00, 1.57860339e+00,  1.12391782e+00,  1.59057212e+00,  1.34871876e+00, 8.09682846e-01,  5.34519732e-01,  4.38894570e-01,  3.63222122e-01, 5.51202536e-01,  9.38744068e-01,  1.19625986e+00,  2.07634616e+00, 1.88593745e+00,  2.40700793e+00,  2.45235467e+00,  1.12122929e+00, 5.01866698e-01,  2.39057466e-01, -3.83877158e-02, -4.27212536e-01, -4.46098089e-01,  9.28336829e-02,  2.49923423e-01,  1.56905639e+00, 3.88571000e+00,  7.73901987e+00,  5.72083378e+00,  2.50687170e+00, 1.86525989e+00,  2.47901845e+00,  2.24893284e+00,  1.05084574e+00, -6.62845001e-02,  4.55224812e-01,  9.18337286e-01,  2.44847560e+00, 4.70200491e+00,  9.75823975e+00,  6.68183470e+00,  1.72565472e+00, 1.44707710e-02,  7.23501086e-01,  1.13220406e+00, -4.13303077e-01, -9.75397468e-01,  8.46177220e-01,  1.19805455e+00,  3.28291464e+00, 5.56595325e+00,  9.52968502e+00,  6.27915478e+00,  3.17762399e+00, 1.31656861e+00,  2.42130303e+00,  3.82053328e+00,  1.96389222e+00, 1.93638897e+00,  3.96409440e+00,  3.58362651e+00,  3.86477876e+00, 6.17948532e+00,  8.31227112e+00,  7.93365765e+00,  7.59109354e+00, 6.50906515e+00,  5.65020514e+00,  6.69208908e+00,  5.74531555e+00, 4.97976589e+00,  6.05033922e+00,  6.09415150e+00,  3.76972270e+00, 4.22833872e+00,  5.27570629e+00,  8.05018616e+00,  9.68469238e+00, 1.06775475e+01,  8.75388718e+00,  7.43688917e+00,  7.00950241e+00, 7.40053034e+00,  8.30585957e+00,  8.63189888e+00,  5.13325214e+00, 2.73848772e+00,  2.00389361e+00,  4.67431402e+00,  5.77106571e+00, 8.25360107e+00,  7.91629028e+00,  7.79669714e+00,  7.65775156e+00, 7.79138947e+00,  8.79186535e+00,  8.92894936e+00,  4.93237400e+00, 2.31103468e+00,  1.89132798e+00,  2.37339902e+00,  1.75160432e+00, 3.05616140e+00,  4.45983267e+00,  5.16294098e+00,  5.11148882e+00, 5.35987043e+00,  5.84883022e+00,  5.79072952e+00,  1.20186400e+00, 1.84360647e+00,  2.46522021e+00,  2.48992968e+00,  2.27134252e+00, 3.21785045e+00,  3.87639332e+00,  3.93886137e+00,  3.39185095e+00, 2.40208721e+00,  1.37206757e+00,  1.71488965e+00, -8.06441605e-01, 1.91028810e+00,  1.22435701e+00,  1.09720516e+00,  1.09464848e+00, 1.93160796e+00,  2.73629022e+00,  3.25926113e+00,  3.22643089e+00, 2.82247043e+00,  1.52873337e+00,  8.02202880e-01,  5.26586175e-01, 3.30245376e-01,  4.57247421e-02,  3.58102351e-01,  7.49297559e-01, 7.09618866e-01,  8.86452854e-01,  8.82545650e-01,  8.57279062e-01, 1.02770185e+00,  1.00271165e+00,  6.24273658e-01,  3.31066072e-01, 7.84290612e-01, -8.17313254e-01, -8.19648325e-01,  4.64125007e-01, 3.45444441e-01,  2.95544595e-01,  7.16885552e-02,  7.95074105e-02, 3.23841691e-01,  2.78000325e-01, -7.45890141e-02, -2.39352420e-01, 1.22569895e+00, -9.04464066e-01, -7.74747729e-01,  1.08538878e+00, 9.66731369e-01,  4.60405260e-01, -5.60448885e-01, -3.35098594e-01, 1.33761659e-01,  4.41933185e-01,  4.59353477e-01,  3.33664864e-01, 9.06103849e-01, -9.81614411e-01, -5.64148962e-01,  1.29311132e+00, 9.80142117e-01,  9.41279829e-01, -1.56775732e-02, -1.37751907e-01, 3.46059829e-01,  1.07675171e+00,  1.20927370e+00,  1.47161722e+00, 1.30212486e-01,  5.06412089e-01, -9.06292349e-02, -3.91543061e-01, -3.72970328e-02,  1.31960583e+00,  7.66166687e-01,  1.81295395e-01, 7.24197924e-01,  1.30029070e+00,  1.71403992e+00,  1.73410356e+00, -4.16888356e-01,  8.80465925e-01,  1.08255720e+00,  2.67484307e-01, 5.85047722e-01,  1.42953321e-01, -1.23187101e+00, -1.82814431e+00, -1.60806000e+00, -8.03453982e-01,  1.42339021e-01,  5.30933976e-01, -1.12226474e+00, -3.83628234e-02,  1.09555387e+00,  7.45976388e-01, 8.16990376e-01, -1.23578191e+00, -1.77718043e+00, -7.63478935e-01, -2.42291078e-01, -5.99304080e-01, -1.21045935e+00, -1.49247158e+00, -9.31588590e-01, -9.16507602e-01, -1.04327360e-03, -9.84091818e-01, -1.39916503e+00, -3.39357710e+00, -3.09640646e+00, -7.47214854e-02, 9.85074461e-01, -6.83362186e-01, -2.67160702e+00, -2.32589936e+00, 6.61152542e-01,  2.86713928e-01,  4.64745432e-01, -2.02994674e-01, -3.61082464e-01, -1.62684608e+00, -1.70803502e-01,  1.98514414e+00, 1.94581997e+00, -8.89573395e-01, -2.69672298e+00, -2.41979980e+00, 9.26412106e-01,  8.77129912e-01,  2.14795470e-01,  3.11443239e-01, 2.50192851e-01, -2.77892262e-01,  1.21517348e+00,  2.81567097e+00, 3.58971500e+00,  1.91907656e+00,  6.64650977e-01, -7.91426480e-01, 1.19792807e+00,  2.58299142e-01,  1.99328974e-01, -1.87885892e-02, -1.62961464e-02,  2.04898000e-01,  5.76740444e-01,  1.53348315e+00, 2.83068895e+00,  2.63299918e+00,  2.40660787e+00,  1.06220984e+00, 6.38907373e-01, -1.02783477e+00, -9.62386072e-01, -5.64518094e-01, -2.22598061e-01,  6.56805336e-02,  2.64013201e-01,  4.73790377e-01, 7.72044718e-01,  1.02398586e+00,  9.44193006e-01,  1.56950045e+00, 7.08601832e-01,  2.99426615e-01, -2.19253793e-01, -2.63854891e-01, -8.30870926e-01, -1.31726050e+00, -1.27266490e+00, -1.29888427e+00, -1.37775207e+00, -1.57472074e+00, -1.64772356e+00, -1.24904573e+00, 2.25149703e+00,  2.24700260e+00,  1.40795147e+00,  1.23102915e+00, 3.08602482e-01, -6.07688606e-01, -5.75507581e-01, -7.59695530e-01, -1.21089852e+00, -1.52269232e+00, -1.23925602e+00, -1.12069297e+00, 2.51760125e+00,  2.96229529e+00,  3.03664446e+00,  2.50668502e+00, 1.40728641e+00, -1.40152991e-01, -2.39001870e-01, -6.61931455e-01, -9.75128353e-01, -1.38308620e+00, -9.46974337e-01, -5.68663180e-01, 2.70599890e+00,  2.71425128e+00,  3.32877707e+00,  2.74227381e+00, 2.41671920e+00,  1.68100059e+00,  1.82318556e+00,  1.15338290e+00, 4.04583424e-01, -3.77292782e-01, -9.41902772e-02,  4.20500815e-01, 2.32698059e+00,  1.25162292e+00,  1.03092206e+00,  5.18359244e-01, 1.44023132e+00,  2.30153465e+00,  2.70469260e+00,  1.64214575e+00, 5.41563570e-01, -1.38636410e-01,  4.93935138e-01,  1.15827501e+00, 1.85337231e-01, -1.28374350e+00, -1.32001126e+00, -7.35017300e-01, 6.68446779e-01,  1.89931810e+00,  1.24963367e+00,  9.25204754e-02, -3.32568139e-01, -1.26644838e+00, -7.63615549e-01,  3.65935653e-01, -1.03029752e+00, -2.67977905e+00, -2.86196613e+00, -2.59451175e+00, -1.05953157e+00, -5.84953070e-01, -1.39375639e+00, -1.60549963e+00, -1.64234734e+00, -2.47893381e+00, -2.25959539e+00, -7.96366215e-01, -8.66157472e-01, -1.99388683e+00, -2.46616149e+00, -3.00605106e+00, -2.01594567e+00, -2.08728671e+00, -2.18094420e+00, -1.71131206e+00, -2.03735209e+00, -2.99845791e+00, -2.98197436e+00, -1.69173431e+00, 6.23476923e-01,  3.38392884e-01, -1.45739698e+00, -2.18819380e+00, -1.49899781e+00, -1.59035218e+00, -1.97378528e+00, -1.37378359e+00, -1.33853114e+00, -2.16830540e+00, -2.28738618e+00, -1.73364937e+00, 1.64774632e+00,  1.97625935e+00,  5.99049449e-01,  3.72218460e-01, 4.83074456e-01,  4.66152877e-01,  6.27357185e-01,  5.52186847e-01, 5.02567172e-01, -9.55625176e-02, -1.11349034e+00, -1.39822721e+00, 1.32978356e+00,  2.31965804e+00,  1.78698683e+00,  1.73481512e+00, 1.91595888e+00,  2.27061558e+00,  2.78196001e+00,  2.61915302e+00, 1.42876959e+00,  5.10832220e-02, -1.36072135e+00, -1.46247017e+00, 6.26116395e-01,  1.12881398e+00,  1.08047283e+00,  1.17784667e+00, 1.06990349e+00,  1.28388274e+00,  1.45590937e+00,  1.32589865e+00, 5.28693080e-01, -5.41490555e-01, -1.91759241e+00, -1.79989195e+00, -1.27536595e+00, -1.54370248e+00, -1.12390721e+00, -7.86512673e-01, -7.79693902e-01, -5.89999080e-01, -5.50754547e-01, -5.57213664e-01, -5.32181680e-01, -6.34014964e-01, -7.22524047e-01, -8.02539587e-01, -1.52410948e+00, -9.86250758e-01, -6.68661237e-01, -1.15051281e+00, -1.24933147e+00, -6.43774450e-01, -6.54904604e-01, -7.16558337e-01, -7.42069900e-01, -8.56641471e-01, -8.25480223e-01, -8.19886327e-01, -1.29659104e+00, -1.30630386e+00, -1.08252072e+00, -1.83121955e+00, -1.99422908e+00, -1.32627749e+00, -1.43818569e+00, -1.39899087e+00, -1.33222187e+00, -1.05280590e+00, -6.18603051e-01, -6.18012547e-01, -2.58021307e+00, -3.54015183e+00, -3.16410255e+00, -2.68974328e+00, -2.68869758e+00, -2.31181240e+00, -2.25655890e+00, -2.37996387e+00, -1.88579392e+00, -1.57480931e+00, -1.04730713e+00, -9.54464793e-01, -3.48156047e+00, -4.36790514e+00, -4.21812820e+00, -3.15623736e+00, -2.79282761e+00, -2.26965690e+00, -2.41561794e+00, -2.45881200e+00, -2.63801765e+00, -2.92190862e+00, -2.02013779e+00, -1.19571245e+00, -4.00281858e+00, -4.36756563e+00, -3.64857292e+00, -3.69657946e+00, -3.37971902e+00, -3.47237825e+00, -3.40691090e+00, -3.26812720e+00, -3.77244544e+00, -4.11650515e+00, -2.81217933e+00, -1.56674528e+00, -3.70908785e+00, -4.66987705e+00, -4.60910559e+00, -4.79695749e+00, -4.28311157e+00, -4.17567348e+00, -3.98776674e+00, -3.82341003e+00, -4.14968967e+00, -4.08706045e+00, -3.43539119e+00, -2.00822926e+00, -3.48300314e+00, -4.85263157e+00, -5.39769316e+00, -5.52700710e+00, -5.34635353e+00, -5.14693451e+00, -4.50170994e+00, -4.27998972e+00, -4.19336033e+00, -4.08095551e+00, -3.62892079e+00, -2.05851007e+00, -1.42886341e+00, -3.31275034e+00, -4.36872721e+00, -4.58912897e+00, -4.85423470e+00, -5.15424585e+00, -5.59169436e+00, -5.56589222e+00, -5.10984087e+00, -4.62079573e+00, -3.86581922e+00, -2.95602465e+00, 2.23685905e-01, -1.29679620e+00, -2.64462471e+00, -3.33834386e+00, -3.73279262e+00, -4.13796139e+00, -4.26004171e+00, -4.53932428e+00, -5.11064720e+00, -5.69295168e+00, -4.86729002e+00, -3.29015231e+00, 9.62142274e-02, -4.47263062e-01, -1.10710752e+00, -1.73193669e+00, -2.19764805e+00, -2.56234622e+00, -2.78300428e+00, -3.09488010e+00, -3.29565287e+00, -3.57456136e+00, -3.47423887e+00, -2.35810828e+00, 2.45729417e-01,  5.83909214e-01,  3.24372023e-01, -2.18579113e-01, -8.80910754e-01, -1.53919280e+00, -1.90116763e+00, -1.96310616e+00, -1.78781152e+00, -1.27524710e+00, -6.71876907e-01, -6.73067212e-01, -1.05960763e+00, -1.04931235e+00, -1.49663472e+00, -2.17747307e+00, -2.52345037e+00, -2.62210035e+00, -2.52713633e+00, -2.53478479e+00, -2.54120708e+00, -2.45129347e+00, -2.30302763e+00, -2.24186730e+00, -1.57962191e+00, -1.69238138e+00, -1.93659592e+00, -2.48976827e+00, -2.50591421e+00, -2.54101086e+00, -2.35595417e+00, -2.38176656e+00, -2.54701328e+00, -2.72246099e+00, -2.65367103e+00, -2.73296237e+00, -2.83952069e+00, -2.93317318e+00, -2.98333669e+00, -2.95644236e+00, -2.25107813e+00, -1.77326024e+00, -1.29466915e+00, -1.36411107e+00, -2.10034251e+00, -2.65450478e+00, -2.63646984e+00, -2.76808929e+00, -3.20920706e+00, -4.07700253e+00, -4.24904776e+00, -3.11294770e+00, -1.69344354e+00, -1.06150877e+00, -1.34448075e+00, -1.59212661e+00, -1.75700915e+00, -1.78398633e+00, -2.02318096e+00, -2.38410544e+00, -2.22039270e+00, -2.81792521e+00, -2.35894203e+00, -1.03158486e+00, -1.85949549e-01, -6.50856316e-01, -1.99026954e+00, -2.30114174e+00, -2.07602763e+00, -1.60495210e+00, -1.48078156e+00, -1.49092448e+00, -2.04065382e-01, -1.57221839e-01,  2.57042982e-02,  6.65270209e-01, 6.58409178e-01, -7.70349801e-01, -1.75172460e+00, -1.74465501e+00, -1.58267653e+00, -9.24842238e-01, -9.32528555e-01, -5.10158002e-01, 6.32327497e-01, -1.48905087e-02, -4.28181440e-01,  2.55087875e-02, -2.14595810e-01, -6.51692331e-01, -6.60516441e-01,  5.43231547e-01, 9.62959230e-01,  1.00899875e+00,  8.74183536e-01,  7.86768258e-01, -3.54313850e-01, -9.41737592e-01, -1.59860504e+00, -1.35049129e+00, -1.54689538e+00, -1.29796290e+00, -2.29872748e-01,  7.34493613e-01, 2.04605198e+00,  2.14979815e+00,  1.19353044e+00,  4.00011510e-01, -1.27997768e+00, -1.82763100e+00, -2.41555381e+00, -2.13508487e+00, -2.07041335e+00, -1.75972736e+00, -1.27424097e+00, -6.07705116e-01, -4.54570428e-02, -3.81516278e-01, -8.79209161e-01, -8.72873127e-01, -1.82271349e+00, -2.63991857e+00, -3.05738616e+00, -2.08919907e+00, -1.55349386e+00, -1.42946339e+00, -1.28705394e+00, -8.98735821e-01, -8.42314303e-01, -1.73370206e+00, -8.25639486e-01,  4.95331049e-01, -1.82955003e+00, -2.06072092e+00, -1.94711912e+00, -1.10948694e+00, -6.49789035e-01, -6.21341109e-01, -3.67610782e-01, -3.88864756e-01, -7.78640687e-01, -1.49189436e+00, -1.34156132e+00,  3.25442404e-01, -1.59754157e+00, -1.35764790e+00, -1.34513283e+00, -9.83645380e-01, -6.25870287e-01, -5.90513468e-01, -6.81150198e-01, -8.96238327e-01, -1.00045848e+00, -1.11128831e+00, -9.92794752e-01, -4.48349088e-01, -7.11860508e-02, -6.66890442e-01, -9.68508899e-01, -6.94493592e-01, -6.16179585e-01, -4.75369900e-01, -5.88353217e-01, -6.08044326e-01, -4.68802214e-01, -8.84866342e-02,  2.85093635e-01,  5.90747595e-01, -4.08640385e-01, -1.10154581e+00, -1.59112561e+00, -6.80558085e-01, -6.75265864e-02,  3.59242767e-01,  6.22604154e-02, -5.98469190e-02, 5.88498153e-02,  3.71650875e-01,  6.52647018e-01,  1.03564632e+00, -8.40254366e-01, -2.48399377e+00, -2.20330882e+00, -9.64610815e-01, -4.70489472e-01,  4.06229377e-01, -5.28583415e-02, -2.81606674e-01, -2.01602682e-01,  4.66500998e-01,  9.69032109e-01,  1.38889956e+00, -1.25640225e+00, -4.44612694e+00, -3.57187533e+00, -1.58669376e+00, -1.48717868e+00, -9.47610736e-01, -1.69158304e+00, -2.08692050e+00, -2.00970626e+00, -6.65537000e-01,  8.57645452e-01,  1.20259321e+00, -1.33804369e+00, -4.47044182e+00, -3.17427325e+00, -1.20752025e+00, -2.22589946e+00, -2.20287275e+00, -2.67816305e+00, -3.20346904e+00, -2.74513745e+00, -1.57599628e+00,  3.48874867e-01,  5.44676065e-01, -1.90888131e+00, -2.97040486e+00, -1.60157061e+00, -1.86156046e+00, -2.89670372e+00, -2.94876575e+00, -3.69134951e+00, -3.68775392e+00, -3.29007721e+00, -2.57452321e+00, -1.22381210e+00, -1.54227257e-01, -2.36590075e+00, -2.69311500e+00, -2.26346064e+00, -3.37899446e+00, -3.72789741e+00, -2.55593872e+00, -2.57104468e+00, -3.01755738e+00, -3.72782350e+00, -3.48127890e+00, -2.68509054e+00, -1.22911215e+00, -1.90916610e+00, -2.92188334e+00, -3.91678953e+00, -4.57668591e+00, -4.35176229e+00, -3.32226586e+00, -3.43283463e+00, -3.33062720e+00, -3.81363463e+00, -3.74719501e+00, -3.55084848e+00, -1.44773686e+00, -1.99935448e+00, -3.90145993e+00, -4.49310923e+00, -4.60238934e+00, -3.51900864e+00, -2.87187934e+00, -3.20371485e+00, -3.66892838e+00, -3.66767025e+00, -3.67352700e+00, -3.11324883e+00, -7.62728512e-01, -2.77337432e-01, -1.53107321e+00, -1.37545395e+00, -2.33475828e+00, -3.01536798e+00, -3.23638391e+00, -3.60189557e+00, -4.00197220e+00, -3.64522672e+00, -3.43341088e+00, -3.01292920e+00, -9.62524056e-01, 6.14447534e-01, -7.14228004e-02,  6.09442711e-01,  4.86803025e-01, -8.28347623e-01, -1.49484718e+00, -1.96292675e+00, -2.56484938e+00, -2.11064768e+00, -1.41063130e+00, -1.54492497e+00, -3.93134505e-01, 2.14917850e+00,  3.15313172e+00,  3.51050520e+00,  3.72156525e+00, 2.83882976e+00,  1.92800438e+00,  1.19020844e+00,  6.81155324e-01, 1.10713816e+00,  1.96174800e+00,  2.20710635e+00,  1.72538269e+00, -2.42514700e-01,  2.84185082e-01,  2.54969057e-02,  7.26233274e-02, 8.58039111e-02,  1.19801536e-02,  4.21568081e-02,  4.96179685e-02, 7.41756707e-02,  1.72494762e-02,  7.27391541e-02, -2.82971680e-01, -2.62494147e-01,  7.32257724e-01, -2.57536881e-02,  6.89150393e-02, 2.30367884e-01, -3.37803811e-02,  6.90776408e-02,  8.17594603e-02, 1.62316695e-01,  7.38875419e-02, -2.20392682e-02, -4.85248923e-01, 2.66844302e-01,  1.15901744e+00, -6.18246675e-01, -7.69037381e-02, 6.81059659e-02, -1.05266586e-01,  4.21091095e-02,  3.18333656e-01, 1.45618364e-01,  6.23637289e-02,  4.48558927e-02, -3.58679682e-01, 4.61667627e-01,  1.34360325e+00, -9.52846467e-01, -2.21588269e-01, -2.30119467e-01, -3.11127990e-01,  2.28705630e-01,  8.40458930e-01, 1.31606475e-01, -1.20628603e-01,  9.01245326e-02, -3.07673365e-01, 6.16512597e-01,  7.80741215e-01, -1.23181283e+00, -2.11500391e-01, -5.95590025e-02,  3.82216200e-02,  5.17853558e-01,  1.21663165e+00, 3.09013665e-01, -7.83718079e-02,  1.86308473e-01, -3.51552725e-01, 6.30770743e-01,  2.79474407e-01, -8.31481695e-01, -1.19365670e-01, -3.12287211e-01,  2.59707987e-01,  7.96977818e-01,  1.20404768e+00, 6.62283599e-01,  9.01212692e-02,  3.49207073e-01, -3.82095873e-01, 2.61719197e-01,  7.30769709e-02, -2.47209936e-01,  1.24045253e-01, -3.75430524e-01,  6.18053555e-01,  4.56370473e-01,  6.32241786e-01, 3.31108987e-01, -2.11683795e-01,  2.92279661e-01, -1.20542288e-01, 4.29283321e-01,  2.48141944e-01, -4.81140763e-01, -4.07254249e-02, -3.21112216e-01,  4.69840288e-01, -3.55181992e-02,  4.33793738e-02, -1.97547212e-01, -4.35339540e-01,  1.69559028e-02, -3.62605870e-01, 4.60617691e-01, -4.58476394e-02, -4.56589282e-01, -9.10161063e-04, 2.96743453e-01,  8.51264417e-01,  1.72012240e-01,  6.45811111e-02, -2.71533161e-01, -3.05541307e-01,  2.83701837e-01, -5.64755201e-01, 2.99408942e-01, -1.09610863e-01, -6.08613372e-01, -1.64037645e-01, 1.60525534e-02, -1.74663991e-01,  1.39549688e-01,  1.78507745e-01, 2.19063878e-01,  4.47114110e-01,  1.35699821e+00, -3.20520550e-01, 2.78914094e-01,  9.06077102e-02, -3.40995044e-01, -3.13393980e-01, -1.54660046e-01, -4.65538174e-01, -1.15994513e-01,  3.07765096e-01, 3.59912068e-01,  1.65716141e-01,  7.29795158e-01, -2.26878151e-01, 1.27254426e-01,  2.27307498e-01, -1.52502477e-01, -1.41580135e-01, -3.61492708e-02, -1.14918865e-01,  5.23025542e-02,  1.92985833e-01, 1.45122468e-01,  1.59827635e-01,  2.34887898e-01, -3.75633031e-01, -2.89050251e-01,  1.02368675e-01,  1.19767018e-01,  1.60836475e-03, -7.82400370e-02, -4.28288318e-02, -5.06483428e-02, -3.88522781e-02, -2.60052867e-02,  1.03534557e-01,  2.13205576e-01, -3.78885753e-02, -1.99774221e-01,  8.71350229e-01,  1.00889421e+00,  4.60299700e-01, 3.76678258e-02,  1.28631126e-02, -1.23044942e-02,  2.63689812e-02, 3.44567373e-02,  1.29561320e-01,  2.44380578e-01,  3.42783839e-01, -9.62147713e-02,  9.74514186e-01,  9.11892951e-01,  7.76201844e-01, 3.37053955e-01,  1.69916824e-01, -1.07557103e-01, -5.51054254e-02, 8.82091895e-02,  3.28681648e-01,  3.78550559e-01,  3.18711966e-01, 6.37243807e-01,  1.39435422e+00,  1.32587755e+00,  1.28467667e+00, 6.52433813e-01,  1.62373349e-01,  1.02058716e-01,  3.66767585e-01, 4.07816112e-01,  5.66367328e-01,  5.43376923e-01,  4.67055619e-01, 4.50298280e-01,  4.98315603e-01,  5.27511537e-01,  6.59257114e-01, 6.83799148e-01,  7.88974583e-01,  1.21896648e+00,  1.23934937e+00, 9.30740476e-01,  1.00826228e+00,  6.79205954e-01,  3.71613413e-01, -3.28701943e-01, -1.10119677e+00, -8.32023501e-01,  1.96180850e-01, 5.88737428e-01,  8.29473853e-01,  1.07473326e+00,  8.76083970e-01, 6.93537593e-01,  5.39670169e-01,  3.27382654e-01,  2.19512478e-01, -2.97376096e-01, -9.07150567e-01, -3.23547751e-01,  4.43790525e-01, 8.78678203e-01,  1.11532807e+00,  1.04485071e+00,  7.37362385e-01, 8.39970410e-01,  7.04602361e-01,  6.51469409e-01,  4.81104374e-01, -7.90532708e-01, -1.45396364e+00, -1.44925547e+00, -1.16026413e+00, -8.01743984e-01, -3.44193935e-01, -3.18029433e-01, -3.15596342e-01, 2.50985473e-01,  6.05447233e-01,  1.04848218e+00,  1.15539002e+00, -2.87664980e-01, -7.75388479e-01, -7.10737407e-01, -8.34552944e-01, -6.35718703e-01, -1.23655331e+00, -2.09128571e+00, -1.90223765e+00, -1.41955733e+00, -7.41862357e-01, -3.14112097e-01,  4.26494569e-01, 1.03891008e-02, -6.86512589e-02,  7.68840760e-02,  1.30440280e-01, 2.45693535e-01, -9.96893495e-02, -5.69732189e-01, -5.18643558e-01, -6.67087078e-01, -1.02517557e+00, -1.55959368e+00, -1.18054199e+00, -2.75305837e-01, -2.97775030e-01, -4.96139526e-01, -5.51888943e-01, -5.97225487e-01, -5.54016054e-01, -7.58217692e-01, -9.13515151e-01, -9.97228086e-01, -7.16823399e-01, -8.78812492e-01, -1.67076862e+00, -4.55495417e-01, -4.67315078e-01, -3.35199296e-01, -1.26203328e-01, -2.04425469e-01, -2.15920061e-01, -3.48912895e-01, -5.09983957e-01, -7.21357167e-01, -8.42105269e-01, -9.03684318e-01, -9.22912002e-01, -2.16543347e-01,  2.92129815e-02,  2.43566766e-01,  3.31772745e-01, 3.41024399e-01,  3.55971575e-01,  3.71936500e-01,  3.82368267e-01, 3.92064512e-01,  3.71062875e-01,  3.08712184e-01, -2.41712183e-01, -4.06541049e-01, -9.94585901e-02,  9.50082690e-02,  1.61859855e-01, 1.17514148e-01,  1.62523881e-01,  1.88331321e-01,  2.12462828e-01, 2.24345699e-01,  2.05661669e-01,  1.76698163e-01, -5.77173829e-01, -5.51651359e-01, -2.64447063e-01, -2.25943476e-02,  1.81207404e-01, 7.83809423e-02,  1.22975484e-01,  1.46906033e-01,  1.44501522e-01, 1.71284005e-01,  1.21368945e-01,  1.33826837e-01, -7.20584512e-01, -5.86318672e-01, -5.09480655e-01, -2.80281663e-01,  8.47471803e-02, -4.78886068e-02, -6.17765859e-02, -6.32653087e-02, -3.72457951e-02, 3.29988003e-02,  2.06812322e-02,  8.94576162e-02, -8.06120098e-01, -7.90177286e-01, -7.94998527e-01, -2.94606149e-01,  6.53365105e-02, -1.60793886e-02, -4.86930013e-02, -1.25345096e-01,  5.33051342e-02, 1.42474607e-01, -4.24524695e-02,  6.45922124e-03, -7.45546579e-01, -9.73508894e-01, -8.04327309e-01, -2.53859967e-01, -1.62108898e-01, -2.30184346e-01, -1.48527116e-01, -1.68030322e-01,  2.66501009e-02, 5.61575145e-02, -1.09916106e-01, -4.17579785e-02, -5.91912985e-01, -7.54799247e-01, -2.82012045e-01,  6.65648133e-02, -2.47530073e-01, -2.00169727e-01, -1.79778069e-01, -2.10404277e-01,  2.74603069e-02, -2.53231078e-02, -2.83810765e-01, -2.35058323e-01, -4.39846575e-01, -7.44933426e-01, -1.00736573e-01,  1.95179135e-02, -2.25260705e-01, -1.44445419e-01, -1.96421653e-01, -1.70026824e-01, -8.04823637e-03, -1.61234617e-01, -3.39580178e-01, -3.35405082e-01, -4.51694191e-01, -9.67078865e-01, -8.41933042e-02, -2.50326991e-02, -5.63012585e-02, -8.08610916e-02, -1.78755775e-01, -2.56868124e-01, -1.67969763e-01, -1.32983103e-01, -2.90842772e-01, -3.20908070e-01, -5.30571282e-01, -9.44638193e-01, -7.92786777e-02,  5.52383363e-02,  2.41382256e-01, 1.15391940e-01, -3.97546589e-03, -7.71456659e-02, -8.44032615e-02, -1.14207596e-01, -2.54951417e-01, -2.20481843e-01, -5.58397889e-01, -8.57707262e-01, -1.94000721e-01,  7.72312731e-02,  2.75505304e-01, 2.26613745e-01,  1.35532305e-01,  7.43052661e-02,  4.54273373e-02, 5.03295213e-02,  3.99358571e-02,  5.02147526e-02, -5.37887514e-01, -6.30145252e-01, -5.15027940e-02,  2.47008368e-01,  3.54796708e-01, 3.06403697e-01,  2.97011852e-01,  2.51814306e-01,  1.84253946e-01, 1.35103449e-01,  1.75038651e-01,  8.30172896e-02, -2.98746705e-01, -1.85080245e-01, -4.41651791e-01, -6.48489058e-01, -7.13475287e-01, -7.27708399e-01, -7.16497958e-01, -7.13297963e-01, -7.24107742e-01, -7.34994769e-01, -6.76082790e-01, -5.54019213e-01, -1.90716818e-01, 3.02659627e-02, -8.36063027e-02, -2.43941560e-01, -3.53732586e-01, -4.62193131e-01, -5.02011418e-01, -5.08386791e-01, -5.17320216e-01, -5.31551957e-01, -4.58821803e-01, -3.17534000e-01, -3.05207707e-02, 1.32579923e-01, -2.14071944e-02, -1.10335842e-01, -1.53613821e-01, -2.64667511e-01, -2.41136163e-01, -2.46698439e-01, -2.33925268e-01, -2.54094958e-01, -2.76632756e-01, -6.55209497e-02,  3.11460018e-01, 4.36259210e-02, -3.74725387e-02, -3.59128565e-02, -1.71420500e-01, -2.01769978e-01, -2.55879797e-02,  2.67801974e-02,  1.16408639e-01, 8.48794878e-02, -8.38540774e-03,  9.05722156e-02,  4.65901583e-01, 6.92448616e-02,  8.82783905e-02,  1.68253109e-01,  7.35277459e-02, -1.00649074e-01, -7.66448081e-02, -2.00469464e-01, -2.49082908e-01, -2.62137860e-01, -2.50806734e-02,  1.62948385e-01,  4.98574018e-01, -1.46557223e-02,  1.17100559e-01,  2.21313938e-01,  2.27061715e-02, -1.69588760e-01, -3.29677314e-01, -4.95657146e-01, -6.17402017e-01, -4.43594038e-01, -8.76133442e-02,  1.61020041e-01,  3.76018196e-01, -1.22794159e-01, -2.88047433e-01, -4.19417292e-01, -6.58592701e-01, -6.50579274e-01, -5.83999336e-01, -3.92898291e-01, -3.28042030e-01, -1.84939340e-01, -2.00574119e-02,  4.70367968e-02,  2.81242188e-02, -5.15943170e-02, -6.53561532e-01, -8.20243359e-01, -9.50065792e-01, -9.61106062e-01, -9.34068322e-01, -7.90903747e-01, -5.91930509e-01, -4.69140381e-01, -4.86304075e-01, -4.14772838e-01, -1.05199292e-01, 3.97199422e-01, -3.41495126e-01, -5.88553548e-01, -6.94466412e-01, -6.98471248e-01, -7.61881649e-01, -8.12579989e-01, -7.11477578e-01, -5.23769796e-01, -4.43365693e-01, -3.38902682e-01, -1.67995557e-01, 4.26348984e-01,  5.74700534e-02, -1.62858248e-01, -2.27910399e-01, -2.20307052e-01, -1.80086911e-01, -2.20462024e-01, -2.78243542e-01, -2.42192328e-01, -1.54460877e-01, -2.00839117e-01, -2.04843387e-01, 2.40659148e-01, -7.25030154e-02, -2.00445235e-01, -2.64754534e-01, -2.75638878e-01, -1.77760050e-01, -9.02808011e-02, -3.91977876e-02, -5.34904376e-02, -4.06233445e-02, -1.19237937e-02, -1.55589372e-01, -6.35390282e-02, -5.10408282e-01, -7.56320715e-01, -8.05638075e-01, -8.00447226e-01, -7.21683145e-01, -6.59466624e-01, -5.77378869e-01, -5.42941332e-01, -4.39353406e-01, -3.18988740e-01, -1.75741136e-01, -8.83685589e+00, -9.22713375e+00, -8.58699226e+00, -8.63088131e+00, -7.70009136e+00, -7.09776211e+00, -7.16784477e+00, -7.22163486e+00, -7.11659622e+00, -7.12431908e+00, -6.69502926e+00, -7.16944695e+00, -9.62954903e+00, -8.70761013e+00, -8.31080151e+00, -9.68738937e+00, -8.77061367e+00, -8.09064770e+00, -8.16848946e+00, -8.15415287e+00, -7.94439316e+00, -7.90704441e+00, -6.66979885e+00, -8.59004688e+00, -9.43084145e+00, -7.10602760e+00, -7.24207497e+00, -9.54942799e+00, -9.19279957e+00, -8.58973980e+00, -8.77026367e+00, -8.05464363e+00, -7.17011452e+00, -7.72079182e+00, -6.82512569e+00, -8.68104458e+00, -9.40866756e+00, -7.24090195e+00, -7.84317303e+00, -9.47303581e+00, -9.46146202e+00, -9.69075871e+00, -1.08211136e+01, -9.12871552e+00, -7.42480087e+00, -7.89849758e+00, -7.56611633e+00, -8.42640972e+00, -5.88177299e+00, -4.04848909e+00, -5.46727562e+00, -7.96417141e+00, -9.79581451e+00, -1.08035975e+01, -1.12008705e+01, -8.88109970e+00, -7.38431072e+00, -7.53652859e+00, -7.01851559e+00, -7.50335884e+00, -5.77079296e+00, -4.36865902e+00, -5.76682472e+00, -8.13863659e+00, -1.02809687e+01, -9.73713398e+00, -8.87348366e+00, -6.84195137e+00, -6.54922390e+00, -6.47464657e+00, -6.90589237e+00, -6.94626045e+00, -7.06908417e+00, -6.57617188e+00, -6.75003338e+00, -7.20543098e+00, -9.06764507e+00, -7.41417503e+00, -5.96059418e+00, -5.74589252e+00, -6.65048599e+00, -6.94211864e+00, -7.02353001e+00, -5.88292789e+00, -8.71707535e+00, -8.39622593e+00, -8.47521400e+00, -8.20199394e+00, -8.75928688e+00, -5.94849110e+00, -4.73979568e+00, -5.56557846e+00, -5.86671543e+00, -7.00434875e+00, -6.02599239e+00, -3.63167930e+00, -6.43696499e+00, -7.39267063e+00, -9.12779236e+00, -1.04675674e+01, -1.14286308e+01, -9.50058365e+00, -9.61077976e+00, -1.00997715e+01, -9.42473793e+00, -8.43493748e+00, -5.02117729e+00, -2.15012169e+00, -5.48417854e+00, -6.45074368e+00, -8.33207226e+00, -9.69695663e+00, -9.44646454e+00, -1.05661020e+01, -1.14907188e+01, -1.08990097e+01, -1.09923267e+01, -1.00271378e+01, -5.65668201e+00, -1.96157253e+00, -6.01882267e+00, -5.84703636e+00, -7.01195049e+00, -7.62697697e+00, -7.56552124e+00, -8.99240780e+00, -9.74465561e+00, -9.15934563e+00, -8.53185368e+00, -1.02522554e+01, -7.80581284e+00, -6.94091129e+00, -6.93565655e+00, -6.35304546e+00, -7.06895065e+00, -7.87752151e+00, -8.36089802e+00, -9.42698669e+00, -1.06332188e+01, -1.04065390e+01, -9.67519093e+00, -1.01135740e+01, -8.71032715e+00, -9.38766479e+00, -8.31050456e-01, -1.64116412e-01, -2.27915883e-01, -1.72441199e-01, -5.01643836e-01, -1.04038143e+00, -1.05761278e+00, -1.01827979e+00, -1.10667491e+00, -1.18966484e+00, -1.18417990e+00, -1.46382570e+00, -2.12917876e+00, -6.55278921e-01, -5.86753368e-01, -1.63846925e-01, -5.21239281e-01, -1.30265987e+00, -1.23964465e+00, -1.26076913e+00, -1.48293543e+00, -1.67874348e+00, -1.83906341e+00, -2.18802238e+00, -8.93730581e-01,  9.08363283e-01,  5.63486934e-01,  6.24646068e-01, 3.34298015e-01, -1.10495031e+00, -9.63961899e-01, -8.77454638e-01, -7.26003408e-01, -1.13569629e+00, -1.38726974e+00, -2.21081710e+00, 7.65121132e-02,  1.58019257e+00,  1.72641671e+00,  1.33539855e+00, 1.28873217e+00, -6.78692013e-04,  1.50884375e-01,  7.33842254e-01, 7.56027699e-01, -1.40578359e-01, -1.21005833e+00, -2.17561865e+00, 5.42588651e-01,  1.37188458e+00,  2.85574913e+00,  2.59745908e+00, 2.38103509e+00,  2.31833720e+00,  3.14923215e+00,  3.33428192e+00, 2.94906402e+00,  1.34584117e+00, -2.22742334e-01, -1.56309485e+00, 1.88598037e+00,  2.06910324e+00,  3.37024546e+00,  3.23301220e+00, 3.43474436e+00,  4.68953133e+00,  6.46310329e+00,  6.62552214e+00, 5.14040899e+00,  2.62449908e+00,  7.02409565e-01, -6.96927309e-01, 3.12112761e+00,  3.85271072e+00,  4.58898640e+00,  4.12343931e+00, 4.92139149e+00,  6.46001482e+00,  7.24690390e+00,  6.38122129e+00, 4.66389608e+00,  3.85446239e+00,  3.28056383e+00,  1.75574398e+00, 1.71611536e+00,  2.81502438e+00,  2.63615870e+00,  2.57850671e+00, 3.38651991e+00,  5.21456861e+00,  6.02250290e+00,  5.47082996e+00, 4.49440622e+00,  4.93296003e+00,  6.02734041e+00,  3.72630453e+00, -1.21364403e+00, -7.21198559e-01, -4.33244646e-01, -1.83226056e-02, 6.85413301e-01,  2.07391405e+00,  2.84411526e+00,  2.66582513e+00, 2.43893671e+00,  3.25986075e+00,  4.64295006e+00,  2.22261405e+00, -2.82049918e+00, -2.79872704e+00, -3.12728643e+00, -2.75084424e+00, -2.12608290e+00, -1.84478259e+00, -1.19803727e+00, -6.16035521e-01, -1.75582543e-01,  4.64276642e-01,  1.57208169e+00, -2.56466120e-01, -1.95411658e+00, -2.02458787e+00, -2.65602684e+00, -2.78492260e+00, -2.42277527e+00, -2.33011937e+00, -2.35239649e+00, -1.98133957e+00, -1.35490799e+00, -9.15253401e-01,  2.69663371e-02, -7.65862167e-01, -1.03997087e+00, -1.29792380e+00, -1.42538500e+00, -1.44427669e+00, -1.01303828e+00, -7.07503021e-01, -7.81719685e-01, -9.29238379e-01, -8.63359869e-01, -4.80550051e-01, -4.70517099e-01, -7.96880126e-01, -2.00276539e-01, -5.33516645e-01, -7.97442615e-01, -6.86993897e-01, -7.97207117e-01, -8.09238434e-01, -7.69969761e-01, -7.47317851e-01, -7.03606844e-01, -7.54753053e-01, -1.23106527e+00, -1.14244437e+00, 1.87367916e-01,  7.12243244e-02,  4.45508301e-01, -1.04096815e-01, -8.07027698e-01, -1.04249501e+00, -1.03691781e+00, -9.88377929e-01, -1.04641259e+00, -9.97172236e-01, -1.36477017e+00, -1.35213828e+00, -1.20987862e-01,  1.37193549e+00,  2.06551099e+00,  9.23895061e-01, 6.18935302e-02,  6.65818006e-02,  4.14319247e-01,  3.10780466e-01, -1.64760366e-01, -4.60154653e-01, -9.03455913e-01, -1.01140201e+00, 1.13502097e+00,  3.32294798e+00,  3.42431569e+00,  1.07169247e+00, 9.86052305e-02,  2.91580379e-01,  7.25897074e-01,  2.92012334e-01, -8.03853154e-01, -9.26943302e-01, -1.37395501e+00, -1.29673111e+00, 1.07854688e+00,  3.89624071e+00,  3.42537498e+00,  8.38819861e-01, 9.26235259e-01,  1.14559078e+00,  1.05038917e+00,  5.19547403e-01, -9.68623906e-02, -2.88399428e-01, -6.37191117e-01, -9.13162172e-01, -4.42790151e-01,  1.61669469e+00,  1.20480299e+00,  2.97526181e-01, 1.55734026e+00,  2.04399157e+00,  2.40010333e+00,  1.85014129e+00, 9.88956153e-01,  9.84329402e-01,  8.85644197e-01, -2.93529093e-01, -8.22358251e-01,  2.74480134e-01,  7.67352164e-01,  1.07603824e+00, 1.41252673e+00,  1.73322499e+00,  2.92158318e+00,  2.41289759e+00, 1.08003914e+00,  1.05979884e+00,  1.24370408e+00,  3.45472991e-01, -4.58193421e-01,  5.72961092e-01,  1.56540442e+00,  2.08474112e+00, 1.65571439e+00,  1.00733423e+00,  1.44529128e+00,  1.15064216e+00, -1.13139721e-03, -5.36549449e-01, -3.20026487e-01, -4.57208097e-01, -1.06343484e+00, -1.72718331e-01,  1.04712081e+00,  1.66331935e+00, 1.10146737e+00,  9.77574289e-01,  5.24451435e-01, -4.02621478e-01, -8.06703031e-01, -2.57699221e-01,  4.40029323e-01,  6.32706940e-01, -1.10049772e+00, -6.24976814e-01, -1.23611785e-01, -7.04197466e-01, -1.00479650e+00, -5.64253986e-01, -1.87777519e-01, -5.91098368e-01, -6.75328970e-01,  6.01438046e-01,  2.45730352e+00,  2.47857881e+00, -6.21627390e-01,  4.46269125e-01,  7.06277966e-01, -5.09712279e-01, -1.03198731e+00, -1.14664614e+00, -9.31782842e-01, -1.01003015e+00, -1.09146023e+00,  6.72859624e-02,  9.42947209e-01,  3.24586153e-01, 1.21498115e-01,  4.35843617e-01,  5.35035968e-01, -9.01779234e-02, -4.20367956e-01, -5.77883899e-01, -5.33761978e-01, -6.10150397e-01, -1.13586366e+00, -1.43340611e+00, -1.01478815e+00, -9.16189909e-01, 1.66524756e+00,  2.25527358e+00,  1.57768691e+00,  9.84718680e-01, 9.19401765e-01,  4.43157166e-01,  4.57969099e-01,  5.46850622e-01, 3.91994268e-01,  2.98788130e-01,  3.33033741e-01,  3.18713665e-01, 2.59890056e+00,  3.22005081e+00,  3.20787287e+00,  2.81404114e+00, 2.43408513e+00,  7.74278283e-01,  8.13789785e-01,  9.66338515e-01, 7.89434373e-01,  3.92316252e-01,  2.34956577e-01, -3.20247561e-02, 4.31360292e+00,  5.53179026e+00,  6.66879988e+00,  5.75427580e+00, 5.24536943e+00,  3.30603123e+00,  3.36465144e+00,  3.20694518e+00, 3.21222711e+00,  2.72230077e+00,  1.27627933e+00,  6.71602488e-01, 4.92953730e+00,  6.36357784e+00,  7.66705799e+00,  6.54581165e+00, 5.34918165e+00,  4.01059723e+00,  4.05752468e+00,  3.58881330e+00, 3.93628192e+00,  3.26387596e+00,  1.74620783e+00,  1.56522071e+00, 3.20998192e+00,  3.17141604e+00,  2.75934005e+00,  2.06899142e+00, 1.97295010e+00,  3.07195210e+00,  4.76472044e+00,  5.13212729e+00, 5.62018108e+00,  4.53147507e+00,  2.39218616e+00,  2.61627364e+00, 1.88145709e+00, -4.39009160e-01, -1.88178098e+00, -1.42350829e+00, -3.05917323e-01,  1.36651623e+00,  3.77385902e+00,  4.19555283e+00, 4.69205713e+00,  4.07863474e+00,  2.67521667e+00,  2.27515769e+00, 6.48858547e-02, -1.89285028e+00, -2.16490126e+00, -1.69834876e+00, -1.07306349e+00, -1.58439651e-01,  1.52422249e-01,  1.65065452e-01, 1.10214829e+00,  7.46851981e-01, -1.48875460e-01, -4.60889369e-01, -2.19288364e-01, -1.77032733e+00, -1.14158964e+00, -1.45645416e+00, -2.33472180e+00, -2.18926120e+00, -2.32094646e+00, -2.54728723e+00, -2.37176490e+00, -3.24878430e+00, -3.37605786e+00, -3.07035255e+00, -3.63416702e-01, -5.75353622e-01, -5.73467672e-01, -1.15294313e+00, -2.27965021e+00, -2.36249828e+00, -3.18030310e+00, -3.62013197e+00, -3.70087409e+00, -4.02806807e+00, -3.63901782e+00, -2.96029806e+00, -1.79829434e-01,  2.79321939e-01,  2.48605579e-01,  2.60008901e-01, -3.86868089e-01, -9.44365084e-01, -1.83726847e+00, -1.81249022e+00, -1.79700744e+00, -2.22732687e+00, -2.44540668e+00, -2.46742177e+00, 2.85136044e-01,  6.70227855e-02, -8.20813596e-01, -9.70567584e-01, -9.44714725e-01, -1.36601472e+00, -1.96167314e+00, -1.77354991e+00, -8.09411883e-01, -6.63943112e-01, -6.30189002e-01, -1.58223557e+00, 1.62661955e-01, -2.80831635e-01, -1.41592205e+00, -1.90374541e+00, -1.75664914e+00, -2.05977392e+00, -2.54561543e+00, -2.68705320e+00, -2.20320821e+00, -2.12673044e+00, -1.86051476e+00, -2.20972061e+00, -8.26357424e-01, -1.14652896e+00, -1.32379854e+00, -1.31145489e+00, -1.28249443e+00, -1.28440368e+00, -1.16639924e+00, -1.12749350e+00, -1.10438526e+00, -1.09463727e+00, -6.91195846e-01, -7.96924293e-01, -4.49728847e-01, -8.65574598e-01, -1.13366735e+00, -1.38494813e+00, -1.27692878e+00, -1.08388674e+00, -8.49914908e-01, -7.23629177e-01, -7.77706206e-01, -8.80854547e-01, -1.22465253e+00, -1.21818292e+00, 3.27874452e-01,  4.89603013e-01, -3.09465341e-02, -8.52483332e-01, -7.37670362e-01, -1.28545773e+00, -9.32455361e-01, -5.81839204e-01, -1.76633433e-01, -4.53508139e-01, -1.20350933e+00, -1.57327235e+00, 1.84403527e+00,  2.50141954e+00,  1.57781148e+00,  1.19040549e+00, 7.92296708e-01, -1.41289544e+00, -1.77873778e+00, -1.46250641e+00, -4.16635722e-01,  1.35049567e-01, -7.99357116e-01, -1.42207170e+00, 5.17336035e+00,  5.73070765e+00,  5.85254049e+00,  5.06302738e+00, 3.06900358e+00,  8.44663754e-02, -7.70153642e-01, -7.52796888e-01, 2.70247757e-01,  1.62617457e+00,  1.19459271e+00,  3.24664623e-01, 6.78380775e+00,  8.95654392e+00,  1.00674591e+01,  7.48016071e+00, 5.19197130e+00,  2.77884746e+00,  1.67938530e+00,  1.59559631e+00, 2.68960762e+00,  3.81156325e+00,  3.27099395e+00,  2.35220957e+00, 5.72614765e+00,  7.57084656e+00,  7.99568272e+00,  5.13820267e+00, 4.30721045e+00,  4.50498009e+00,  3.75044012e+00,  3.32860732e+00, 4.35529375e+00,  5.93708801e+00,  5.57183218e+00,  3.92197490e+00, 3.43033433e+00,  4.54746723e+00,  3.66159940e+00,  1.87724912e+00, 1.44973564e+00,  2.01281428e+00,  1.84611893e+00,  1.34739232e+00, 2.48484874e+00,  4.42088842e+00,  3.93775773e+00,  2.98230791e+00, 1.35034776e+00,  2.79753041e+00,  1.69700766e+00,  7.39696205e-01, 2.59889156e-01,  6.36051118e-01,  8.86458158e-01,  6.26874447e-01, 7.71445274e-01,  1.21921051e+00,  9.05288756e-01,  1.30080938e+00, -8.44147146e-01, -3.65882039e-01, -3.31683546e-01,  7.26016581e-01, 5.77381074e-01,  4.87348646e-01,  8.51253271e-01,  4.72843111e-01, -5.54190814e-01, -9.89610314e-01, -5.91694117e-01,  6.66293740e-01, -1.26435113e+00, -1.70290303e+00, -1.92663395e+00, -1.32604957e+00, -1.53098726e+00, -1.59780800e+00, -1.57403803e+00, -1.64900672e+00, -1.59463692e+00, -1.33491194e+00, -5.36318600e-01,  5.52477896e-01, 7.16263354e-02, -1.83412060e-02,  1.59766987e-01,  3.68669033e-01, 1.51000008e-01, -2.28172675e-01, -8.78665268e-01, -1.35742164e+00, -1.52679813e+00, -8.11448753e-01, -1.53868914e-01,  1.76704466e-01, 1.48408031e+00,  1.70376348e+00,  1.49589407e+00,  9.33984041e-01, 3.89352798e-01,  2.37557933e-01,  3.61237377e-01,  3.84309679e-01, 2.10196152e-01,  2.41754711e-01,  3.88890058e-02, -1.65342405e-01, 2.11871552e+00,  2.16510320e+00,  1.59106517e+00,  1.16701078e+00, 5.25621355e-01,  1.22998631e+00,  1.46416223e+00,  1.44548631e+00, 1.17880774e+00,  1.06782651e+00,  5.09778500e-01,  1.41448811e-01, 1.29064262e+00,  1.94762921e+00,  1.33403218e+00,  4.70031291e-01, -4.53566253e-01,  8.78328741e-01,  8.92358005e-01,  5.88395894e-01, 3.84924084e-01,  2.21374348e-01, -1.81280985e-01,  2.05447927e-01, 3.38573992e-01,  8.22376907e-01,  8.84799123e-01,  8.58683407e-01, -2.10461959e-01,  9.87430215e-01,  2.85769314e-01, -4.62053269e-01, -4.38774377e-01, -3.65373939e-01, -2.70592779e-01,  1.64635196e-01, -1.03289926e+00, -5.19794822e-01, -3.90582204e-01, -4.94060107e-02, 1.35200024e-01,  1.25211620e+00,  1.42622983e+00,  4.66232628e-01, -3.11140984e-01, -4.46930379e-01, -4.25418556e-01,  3.10201615e-01, -4.96890813e-01, -8.26552153e-01, -1.85441077e+00, -1.29166150e+00, -3.76063168e-01,  7.92967260e-01,  7.23461270e-01, -1.80819198e-01, -1.13631237e+00, -8.08902681e-01, -8.06363344e-01,  3.45845789e-01, -1.85956872e+00, -1.87089646e+00, -2.06100082e+00, -1.60362542e+00, -8.36026788e-01, -8.21221411e-01, -1.47161663e+00, -2.85124063e+00, -3.38739800e+00, -3.00778127e+00, -2.50256681e+00, -1.01618707e+00, -1.60729766e+00, -1.25685692e+00, -4.77939039e-01, -6.90829158e-02, -5.30317605e-01, -1.58367908e+00, -2.68877625e+00, -3.84361506e+00, -4.37098312e+00, -4.47232771e+00, -3.91678333e+00, -2.80862522e+00, -1.33899927e+00,  9.26276594e-02,  1.93106079e+00,  1.99160230e+00, 1.46095800e+00,  2.71431506e-01, -1.28443408e+00, -2.81815910e+00, -3.71554923e+00, -3.70625496e+00, -3.14084148e+00, -2.93105268e+00, -1.02706087e+00, -1.42264634e-01,  1.57146513e+00,  1.63681901e+00, 6.22419357e-01, -5.85067987e-01, -1.33580899e+00, -1.60021544e+00, -2.39357686e+00, -2.29163575e+00, -2.57468963e+00, -2.41338801e+00, 3.01827639e-02, -2.22752750e-01,  1.18866611e+00,  1.50972939e+00, 6.90842390e-01, -3.58379275e-01, -6.89878821e-01, -7.33290970e-01, -1.13195848e+00, -1.29562867e+00, -2.06166410e+00, -1.41824174e+00, 3.07400733e-01, -4.77459103e-01,  1.09240755e-01,  5.93346179e-01, 5.04345357e-01,  2.01898411e-01,  3.44151497e-01,  2.03924924e-01, -3.06156695e-01, -6.71629965e-01, -1.12231731e+00, -2.71472782e-01, -2.52652049e-01, -6.23611063e-02, -4.32164907e-01, -1.06835878e+00, -1.37856328e+00, -1.42572081e+00, -1.31868362e+00, -1.32742071e+00, -1.21404910e+00, -1.29195535e+00, -1.24125278e+00, -9.45885479e-01, -8.53375316e-01, -9.09956515e-01, -9.95765328e-01, -1.48485458e+00, -1.77825487e+00, -1.49387801e+00, -1.43259680e+00, -1.59022200e+00, -1.54970479e+00, -1.71687305e+00, -1.77329957e+00, -1.23111761e+00, -2.78123474e+00, -3.30317569e+00, -3.92128086e+00, -4.06942368e+00, -3.08212328e+00, -2.05769897e+00, -1.86399829e+00, -2.12655234e+00, -2.35128307e+00, -2.56615329e+00, -2.55258918e+00, -1.65093386e+00, -2.34025359e+00, -4.20223951e+00, -5.63649845e+00, -5.20345974e+00, -3.82399774e+00, -2.70117021e+00, -2.56290102e+00, -2.44500995e+00, -2.67716217e+00, -2.41426468e+00, -1.96936738e+00, -1.18130076e+00, -1.76573443e+00, -3.56163311e+00, -3.56255674e+00, -1.98682725e+00, -1.57214880e+00, -2.19601917e+00, -2.94733071e+00, -2.92979646e+00, -3.19918919e+00, -2.74787307e+00, -2.10944033e+00, -1.40027106e+00, 2.60141611e-01, -6.17050111e-01,  7.30980515e-01,  2.33777285e+00, 1.79065871e+00,  8.68815184e-01,  3.26863676e-01, -1.38605222e-01, -4.73433644e-01, -3.27988237e-01, -6.38121545e-01, -4.26627576e-01, 3.83686018e+00,  4.37301731e+00,  5.13250160e+00,  5.37158394e+00, 6.05503702e+00,  5.87381840e+00,  4.65576935e+00,  4.49663305e+00, 4.76259518e+00,  4.88117647e+00,  5.32217646e+00,  4.30026913e+00, 3.40409517e+00,  4.28344727e+00,  3.84142280e+00,  4.82799101e+00, 6.11578369e+00,  6.70024824e+00,  6.36983490e+00,  6.66260862e+00, 8.33429813e+00,  9.94776726e+00,  1.05566015e+01,  8.41700268e+00, -6.30044714e-02, -2.88153887e-01, -8.54967296e-01, -2.52446860e-01, 3.53444457e-01,  1.16722548e+00,  2.57260180e+00,  4.29886532e+00, 6.02948475e+00,  7.28614569e+00,  7.78883600e+00,  6.59644175e+00, -2.14902973e+00, -3.59572792e+00, -4.08455133e+00, -2.93475342e+00, -2.64501548e+00, -2.62230229e+00, -1.89543736e+00, -7.19122052e-01, 4.30703253e-01,  1.20034981e+00,  2.25935793e+00,  3.71512151e+00, -2.04387474e+00, -3.07008362e+00, -2.79381585e+00, -2.19233274e+00, -2.29051256e+00, -2.20806861e+00, -2.37085605e+00, -2.61930776e+00, -2.53178477e+00, -1.91920662e+00, -4.35014367e-01,  1.15259159e+00, -9.77994561e-01, -1.78594697e+00, -1.74644530e+00, -8.19325268e-01, -4.53298330e-01, -1.98116809e-01, -3.85494113e-01, -7.57684231e-01, -6.99375391e-01, -6.61124647e-01, -1.37390956e-01,  5.29170632e-01, 2.56297559e-01,  6.65324688e-01,  5.71768939e-01,  1.80972859e-01, 2.87336022e-01,  3.31235498e-01,  3.20825487e-01,  3.60028684e-01, 4.19237882e-01,  4.69843060e-01,  7.34102905e-01,  8.68414640e-01, -6.64896607e-01, -2.08181739e-01, -4.89749700e-01, -7.40508199e-01, -3.43800783e-01,  2.11576924e-01,  4.11386281e-01,  4.07255560e-01, 5.67999780e-01,  3.93166244e-01,  4.87084299e-01,  3.72075707e-01, -1.94198024e+00, -2.07591629e+00, -2.24193144e+00, -1.86826897e+00, -1.07525432e+00,  3.98564897e-02,  2.59763598e-01,  1.18963923e-02, -1.49926484e-01, -2.28183970e-01,  6.48453413e-03,  3.19939077e-01, -2.93712950e+00, -3.29166341e+00, -3.20996976e+00, -1.59548724e+00, -3.21550995e-01,  4.16800469e-01,  6.51636183e-01,  4.13149476e-01, 2.41957933e-01,  7.82257318e-01,  1.16593039e+00,  4.64966387e-01, -2.44692373e+00, -3.73084497e+00, -2.51423311e+00, -3.37030068e-02, 1.58315969e+00,  8.08294713e-01, -1.71824191e-02, -4.28230792e-01, -4.53363866e-01, -2.10637793e-01,  4.94953871e-01, -3.24792802e-01, -1.77347636e+00, -2.20715141e+00, -5.94642341e-01,  1.19810581e+00, 2.26657438e+00,  1.79461050e+00, -7.14479685e-02, -5.31629212e-02, -1.33718103e-02, -6.26215458e-01, -2.12206706e-01, -6.29460335e-01, 1.02077568e+00,  1.69442081e+00,  2.20864415e+00,  3.44297099e+00, 4.34838438e+00,  5.14668369e+00,  3.47677040e+00,  2.40126324e+00, 1.73981261e+00,  1.25007641e+00,  1.01818907e+00,  1.42258215e+00, 3.19890881e+00,  3.93111396e+00,  3.56498742e+00,  4.56447124e+00, 5.98486280e+00,  7.54654789e+00,  6.88408947e+00,  5.20146418e+00, 3.95593262e+00,  5.13592386e+00,  5.96984911e+00,  6.21165800e+00, 2.55611277e+00,  2.92859674e+00,  2.42264295e+00,  2.94202828e+00, 4.00366735e+00,  4.56859732e+00,  4.82348776e+00,  4.22677326e+00, 4.46979570e+00,  6.30993271e+00,  7.18505335e+00,  8.52550411e+00, 1.31489325e+00,  1.23456740e+00,  1.77562404e+00,  3.23648167e+00, 4.23060513e+00,  3.51311517e+00,  4.12640190e+00,  4.72043896e+00, 4.96109295e+00,  6.35620070e+00,  7.04055023e+00,  8.69492149e+00, 5.13887331e-02,  1.15140211e-02,  4.63573128e-01,  1.65682566e+00, 2.48821950e+00,  2.77762413e+00,  3.72253966e+00,  4.63690424e+00, 5.34330130e+00,  5.85048771e+00,  5.86087608e+00,  6.52520657e+00, -9.17174816e-01, -8.54864180e-01, -7.71924496e-01, -4.59805429e-01, -1.16612352e-01,  2.72364169e-01,  9.30251062e-01,  1.54024124e+00, 2.62685823e+00,  3.45212650e+00,  4.02460814e+00,  3.88014221e+00, 8.26635242e-01,  5.86815953e-01,  6.61978364e-01,  1.32008910e+00, 1.98545766e+00,  1.71654046e+00,  1.75825548e+00,  1.74551892e+00, 1.63004267e+00,  1.46530414e+00,  1.43440998e+00,  1.00929987e+00, 4.15957868e-01, -5.17297313e-02, -3.43599796e-01,  1.37524939e+00, 2.81989598e+00,  2.68333244e+00,  2.82853818e+00,  2.78052592e+00, 2.59860659e+00,  2.36658621e+00,  2.33688426e+00,  1.76745498e+00, -5.42481363e-01, -1.08476818e+00, -1.16273010e+00,  8.07877660e-01, 3.18715525e+00,  3.07427001e+00,  3.26994967e+00,  3.26451659e+00, 3.09720945e+00,  2.66598582e+00,  2.51016974e+00,  2.17845821e+00, -1.26958513e+00, -1.59242511e+00, -1.74853635e+00, -8.42799425e-01, 2.97850072e-01, -2.74472415e-01, -1.60004824e-01,  1.82338521e-01, 1.00791442e+00,  7.38431931e-01,  8.79736245e-01,  8.74847114e-01, -1.94839537e+00, -2.50676203e+00, -2.31351614e+00, -1.31159759e+00, -4.65763211e-01, -6.73396885e-01, -1.12693620e+00, -1.14687455e+00, -3.68090838e-01, -7.36081541e-01, -5.32669783e-01, -4.69334960e-01, -2.65479422e+00, -3.82158661e+00, -3.59962869e+00, -1.46827114e+00, -7.00618923e-01, -1.31916499e+00, -2.32323527e+00, -3.01910257e+00, -2.48905063e+00, -2.16509986e+00, -1.90776443e+00, -1.98132586e+00, -3.51033616e+00, -4.27049637e+00, -3.85886002e+00, -1.43932569e+00, -2.04022601e-01, -1.50178945e+00, -3.09925866e+00, -3.97703600e+00, -3.31545162e+00, -3.33450174e+00, -4.04494619e+00, -3.79116392e+00, -2.55759978e+00, -3.22278380e+00, -2.11775589e+00, -7.04764187e-01, -3.74215007e-01, -1.04372191e+00, -2.63155389e+00, -3.27809405e+00, -3.13624740e+00, -3.25320768e+00, -3.72873998e+00, -3.89305830e+00, 